{"learner":{"attributes":{"scikit_learn":"{\"_estimator_type\": \"classifier\"}"},"feature_names":["ats_compatibility_score","baseline_final_score","semantic_score","skill_score","required_skill_score","preferred_skill_score","experience_score","title_score","education_score","keyword_context_score","location_score","knockout_count","matched_skills_count","missing_skills_count","job_skills_count","missing_skill_ratio","source_is_linkedin","source_is_indeed","title_has_data","title_has_engineer","title_has_analyst","title_has_python","title_has_software","text_has_sql","text_has_python","text_has_etl","text_has_cloud"],"feature_types":["float","float","float","float","float","float","float","float","float","float","float","int","int","int","int","float","int","int","int","int","int","int","int","int","int","int","int"],"gradient_booster":{"model":{"cats":{"enc":[],"feature_segments":[],"sorted_idx":[]},"gbtree_model_param":{"num_parallel_tree":"1","num_trees":"120"},"iteration_indptr":[0,1,2,3,4,5,6,7,8,9,10,11,12,13,14,15,16,17,18,19,20,21,22,23,24,25,26,27,28,29,30,31,32,33,34,35,36,37,38,39,40,41,42,43,44,45,46,47,48,49,50,51,52,53,54,55,56,57,58,59,60,61,62,63,64,65,66,67,68,69,70,71,72,73,74,75,76,77,78,79,80,81,82,83,84,85,86,87,88,89,90,91,92,93,94,95,96,97,98,99,100,101,102,103,104,105,106,107,108,109,110,111,112,113,114,115,116,117,118,119,120],"tree_info":[0,0,0,0,0,0,0,0,0,0,0,0,0,0,0,0,0,0,0,0,0,0,0,0,0,0,0,0,0,0,0,0,0,0,0,0,0,0,0,0,0,0,0,0,0,0,0,0,0,0,0,0,0,0,0,0,0,0,0,0,0,0,0,0,0,0,0,0,0,0,0,0,0,0,0,0,0,0,0,0,0,0,0,0,0,0,0,0,0,0,0,0,0,0,0,0,0,0,0,0,0,0,0,0,0,0,0,0,0,0,0,0,0,0,0,0,0,0,0,0],"trees":[{"base_weights":[1.2415724E-1,-1.23009376E-1,1.733283E0,2.8535482E-2,1.3253924E-1],"categories":[],"categories_nodes":[],"categories_segments":[],"categories_sizes":[],"default_left":[0,0,0,0,0],"id":0,"left_children":[1,-1,3,-1,-1],"loss_changes":[8.9830215E1,0E0,2.614956E0,0E0,0E0],"parents":[2147483647,0,0,2,2],"right_children":[2,-1,4,-1,-1],"split_conditions":[7.8E1,-1.23009376E-1,8E1,2.8535482E-2,1.3253924E-1],"split_indices":[1,0,1,0,0],"split_type":[0,0,0,0,0],"sum_hessian":[2.7665695E1,1.2711266E1,1.4954431E1,1.993924E0,1.2960506E1],"tree_param":{"num_deleted":"0","num_feature":"27","num_nodes":"5","size_leaf_vector":"1"}},{"base_weights":[-9.6756354E-2,-1.1382312E-1,1.18752174E-1],"categories":[],"categories_nodes":[],"categories_segments":[],"categories_sizes":[],"default_left":[0,0,0],"id":1,"left_children":[1,-1,-1],"loss_changes":[8.174615E1,0E0,0E0],"parents":[2147483647,0,0],"right_children":[2,-1,-1],"split_conditions":[7.9E1,-1.1382312E-1,1.18752174E-1],"split_indices":[0,0,0],"split_type":[0,0,0],"sum_hessian":[2.780296E1,1.5056078E1,1.2746882E1],"tree_param":{"num_deleted":"0","num_feature":"27","num_nodes":"3","size_leaf_vector":"1"}},{"base_weights":[1.42622795E-2,-1.0669107E-1,1.1184996E-1],"categories":[],"categories_nodes":[],"categories_segments":[],"categories_sizes":[],"default_left":[0,0,0],"id":2,"left_children":[1,-1,-1],"loss_changes":[6.8942444E1,0E0,0E0],"parents":[2147483647,0,0],"right_children":[2,-1,-1],"split_conditions":[7.9E1,-1.0669107E-1,1.1184996E-1],"split_indices":[0,0,0],"split_type":[0,0,0],"sum_hessian":[2.6299131E1,1.3358871E1,1.2940261E1],"tree_param":{"num_deleted":"0","num_feature":"27","num_nodes":"3","size_leaf_vector":"1"}},{"base_weights":[-3.5632778E-2,-1.0337242E-1,1.0678571E-1],"categories":[],"categories_nodes":[],"categories_segments":[],"categories_sizes":[],"default_left":[0,0,0],"id":3,"left_children":[1,-1,-1],"loss_changes":[6.925064E1,0E0,0E0],"parents":[2147483647,0,0],"right_children":[2,-1,-1],"split_conditions":[7.9E1,-1.0337242E-1,1.0678571E-1],"split_indices":[1,0,0],"split_type":[0,0,0],"sum_hessian":[2.8779625E1,1.499321E1,1.3786415E1],"tree_param":{"num_deleted":"0","num_feature":"27","num_nodes":"3","size_leaf_vector":"1"}},{"base_weights":[-5.3183004E-2,-1.02702715E-1,1.327759E0,1.6403763E-2,1.0444622E-1],"categories":[],"categories_nodes":[],"categories_segments":[],"categories_sizes":[],"default_left":[0,0,0,0,0],"id":4,"left_children":[1,-1,3,-1,-1],"loss_changes":[5.8929424E1,0E0,2.3973637E0,0E0,0E0],"parents":[2147483647,0,0,2,2],"right_children":[2,-1,4,-1,-1],"split_conditions":[7.8E1,-1.02702715E-1,8E1,1.6403763E-2,1.0444622E-1],"split_indices":[0,0,0,0,0],"split_type":[0,0,0,0,0],"sum_hessian":[2.8181551E1,1.3893263E1,1.4288287E1,2.1837904E0,1.2104497E1],"tree_param":{"num_deleted":"0","num_feature":"27","num_nodes":"5","size_leaf_vector":"1"}},{"base_weights":[-4.323117E-2,-9.848971E-2,1.2525516E0,1.56072285E-2,9.9144496E-2],"categories":[],"categories_nodes":[],"categories_segments":[],"categories_sizes":[],"default_left":[0,0,0,0,0],"id":5,"left_children":[1,-1,3,-1,-1],"loss_changes":[5.0122944E1,0E0,2.1400356E0,0E0,0E0],"parents":[2147483647,0,0,2,2],"right_children":[2,-1,4,-1,-1],"split_conditions":[7.8E1,-9.848971E-2,8E1,1.56072285E-2,9.9144496E-2],"split_indices":[1,0,1,0,0],"split_type":[0,0,0,0,0],"sum_hessian":[2.6366556E1,1.2804477E1,1.3562079E1,2.185544E0,1.1376535E1],"tree_param":{"num_deleted":"0","num_feature":"27","num_nodes":"5","size_leaf_vector":"1"}},{"base_weights":[1.4849626E-3,-1.2520785E0,9.2897184E-2,-9.52297E-2,-1.2130068E-3],"categories":[],"categories_nodes":[],"categories_segments":[],"categories_sizes":[],"default_left":[0,0,0,0,0],"id":6,"left_children":[1,3,-1,-1,-1],"loss_changes":[4.7871284E1,1.9572983E0,0E0,0E0,0E0],"parents":[2147483647,0,0,1,1],"right_children":[2,4,-1,-1,-1],"split_conditions":[7.9E1,7.8E1,9.2897184E-2,-9.52297E-2,-1.2130068E-3],"split_indices":[0,0,0,0,0],"split_type":[0,0,0,0,0],"sum_hessian":[2.6807892E1,1.3806923E1,1.300097E1,1.25995655E1,1.2073575E0],"tree_param":{"num_deleted":"0","num_feature":"27","num_nodes":"5","size_leaf_vector":"1"}},{"base_weights":[1.7137881E-2,-1.1921545E0,8.797243E-2,-9.233177E-2,5.8986866E-3],"categories":[],"categories_nodes":[],"categories_segments":[],"categories_sizes":[],"default_left":[0,0,0,0,0],"id":7,"left_children":[1,3,-1,-1,-1],"loss_changes":[3.939132E1,2.266365E0,0E0,0E0,0E0],"parents":[2147483647,0,0,1,1],"right_children":[2,4,-1,-1,-1],"split_conditions":[7.9E1,5.9E1,8.797243E-2,-9.233177E-2,5.8986866E-3],"split_indices":[1,2,0,0,0],"split_type":[0,0,0,0,0],"sum_hessian":[2.427802E1,1.2308677E1,1.1969344E1,1.1165497E1,1.1431799E0],"tree_param":{"num_deleted":"0","num_feature":"27","num_nodes":"5","size_leaf_vector":"1"}},{"base_weights":[-1.3344548E-2,-1.2313532E0,8.5514314E-2,-8.9940585E-2,-2.8631149E-2],"categories":[],"categories_nodes":[],"categories_segments":[],"categories_sizes":[],"default_left":[0,0,0,0,0],"id":8,"left_children":[1,3,-1,-1,-1],"loss_changes":[4.0223927E1,6.666565E-2,0E0,0E0,0E0],"parents":[2147483647,0,0,1,1],"right_children":[2,4,-1,-1,-1],"split_conditions":[7.9E1,1E1,8.5514314E-2,-8.9940585E-2,-2.8631149E-2],"split_indices":[0,12,0,0,0],"split_type":[0,0,0,0,0],"sum_hessian":[2.4740807E1,1.2457457E1,1.2283351E1,1.1168243E1,1.2892133E0],"tree_param":{"num_deleted":"0","num_feature":"27","num_nodes":"5","size_leaf_vector":"1"}},{"base_weights":[7.077541E-2,-8.677989E-2,1.1497968E0,2.1136592E-3,8.763162E-2],"categories":[],"categories_nodes":[],"categories_segments":[],"categories_sizes":[],"default_left":[0,0,0,0,0],"id":9,"left_children":[1,-1,3,-1,-1],"loss_changes":[3.586614E1,0E0,1.548193E0,0E0,0E0],"parents":[2147483647,0,0,2,2],"right_children":[2,-1,4,-1,-1],"split_conditions":[7.8E1,-8.677989E-2,7.9E1,2.1136592E-3,8.763162E-2],"split_indices":[0,0,0,0,0],"split_type":[0,0,0,0,0],"sum_hessian":[2.3356176E1,1.0479609E1,1.2876569E1,1.1842356E0,1.1692332E1],"tree_param":{"num_deleted":"0","num_feature":"27","num_nodes":"5","size_leaf_vector":"1"}},{"base_weights":[-1.186601E-2,-8.531056E-2,1.0459707E0,2.3989342E-3,8.3995886E-2],"categories":[],"categories_nodes":[],"categories_segments":[],"categories_sizes":[],"default_left":[0,0,0,0,0],"id":10,"left_children":[1,-1,3,-1,-1],"loss_changes":[3.323463E1,0E0,2.1208076E0,0E0,0E0],"parents":[2147483647,0,0,2,2],"right_children":[2,-1,4,-1,-1],"split_conditions":[7.8E1,-8.531056E-2,8E1,2.3989342E-3,8.3995886E-2],"split_indices":[1,0,1,0,0],"split_type":[0,0,0,0,0],"sum_hessian":[2.4034044E1,1.1155246E1,1.2878798E1,1.8626171E0,1.1016181E1],"tree_param":{"num_deleted":"0","num_feature":"27","num_nodes":"5","size_leaf_vector":"1"}},{"base_weights":[8.0889374E-2,-8.275599E-2,1.1337538E0,2.0669732E-2,8.718853E-2],"categories":[],"categories_nodes":[],"categories_segments":[],"categories_sizes":[],"default_left":[0,0,0,0,0],"id":11,"left_children":[1,-1,3,-1,-1],"loss_changes":[3.1956387E1,0E0,8.570137E-1,0E0,0E0],"parents":[2147483647,0,0,2,2],"right_children":[2,-1,4,-1,-1],"split_conditions":[7.8E1,-8.275599E-2,8E1,2.0669732E-2,8.718853E-2],"split_indices":[0,0,0,0,0],"split_type":[0,0,0,0,0],"sum_hessian":[2.2021446E1,9.955272E0,1.2066174E1,1.8479356E0,1.0218238E1],"tree_param":{"num_deleted":"0","num_feature":"27","num_nodes":"5","size_leaf_vector":"1"}},{"base_weights":[-1.9118741E-2,-7.784379E-2,9.4669455E-1,4.5198786E-1,8.15531E-2,-3.3915576E-2,5.515562E-2],"categories":[],"categories_nodes":[],"categories_segments":[],"categories_sizes":[],"default_left":[0,0,0,0,0,0,0],"id":12,"left_children":[1,-1,3,5,-1,-1,-1],"loss_changes":[2.4105669E1,0E0,7.8412247E-1,2.0648034E0,0E0,0E0,0E0],"parents":[2147483647,0,0,2,2,3,3],"right_children":[2,-1,4,6,-1,-1,-1],"split_conditions":[7E1,-7.784379E-2,8.8E1,1E1,8.15531E-2,-3.3915576E-2,5.515562E-2],"split_indices":[3,0,3,12,0,0,0],"split_type":[0,0,0,0,0,0,0],"sum_hessian":[2.083925E1,9.705208E0,1.1134043E1,4.3495193E0,6.784524E0,1.0316044E0,3.317915E0],"tree_param":{"num_deleted":"0","num_feature":"27","num_nodes":"7","size_leaf_vector":"1"}},{"base_weights":[6.892546E-3,-7.949539E-2,1.0010798E0,3.711936E-4,7.77661E-2],"categories":[],"categories_nodes":[],"categories_segments":[],"categories_sizes":[],"default_left":[0,0,0,0,0],"id":13,"left_children":[1,-1,3,-1,-1],"loss_changes":[2.5419247E1,0E0,1.3027811E0,0E0,0E0],"parents":[2147483647,0,0,2,2],"right_children":[2,-1,4,-1,-1],"split_conditions":[7.8E1,-7.949539E-2,7.9E1,3.711936E-4,7.77661E-2],"split_indices":[0,0,0,0,0],"split_type":[0,0,0,0,0],"sum_hessian":[2.0377214E1,9.415005E0,1.0962211E1,1.1934477E0,9.768763E0],"tree_param":{"num_deleted":"0","num_feature":"27","num_nodes":"5","size_leaf_vector":"1"}},{"base_weights":[-2.1156553E-2,-1.0050918E0,7.449578E-2,-8.193371E-2,1.9267462E-2],"categories":[],"categories_nodes":[],"categories_segments":[],"categories_sizes":[],"default_left":[0,0,0,0,0],"id":14,"left_children":[1,3,-1,-1,-1],"loss_changes":[2.2621563E1,2.6725159E0,0E0,0E0,0E0],"parents":[2147483647,0,0,1,1],"right_children":[2,4,-1,-1,-1],"split_conditions":[8E1,5.9E1,7.449578E-2,-8.193371E-2,1.9267462E-2],"split_indices":[0,2,0,0,0],"split_type":[0,0,0,0,0],"sum_hessian":[1.9180729E1,1.0099325E1,9.081404E0,9.019964E0,1.0793605E0],"tree_param":{"num_deleted":"0","num_feature":"27","num_nodes":"5","size_leaf_vector":"1"}},{"base_weights":[4.4183075E-2,-7.599263E-2,8.9191836E-1,6.976315E-3,7.30721E-2],"categories":[],"categories_nodes":[],"categories_segments":[],"categories_sizes":[],"default_left":[0,0,0,0,0],"id":15,"left_children":[1,-1,3,-1,-1],"loss_changes":[2.031003E1,0E0,1.35116E0,0E0,0E0],"parents":[2147483647,0,0,2,2],"right_children":[2,-1,4,-1,-1],"split_conditions":[7.8E1,-7.599263E-2,8E1,6.976315E-3,7.30721E-2],"split_indices":[0,0,0,0,0],"split_type":[0,0,0,0,0],"sum_hessian":[1.9194689E1,8.108177E0,1.1086512E1,2.050817E0,9.035695E0],"tree_param":{"num_deleted":"0","num_feature":"27","num_nodes":"5","size_leaf_vector":"1"}},{"base_weights":[1.7828621E-2,-7.455591E-2,9.937355E-1,3.8416946E-1,7.937964E-2,4.602658E-2,-3.6757162E-3],"categories":[],"categories_nodes":[],"categories_segments":[],"categories_sizes":[],"default_left":[0,0,0,0,0,0,0],"id":16,"left_children":[1,-1,3,5,-1,-1,-1],"loss_changes":[1.9403679E1,0E0,3.8922405E-1,4.304742E-1,0E0,0E0,0E0],"parents":[2147483647,0,0,2,2,3,3],"right_children":[2,-1,4,6,-1,-1,-1],"split_conditions":[7.8E1,-7.455591E-2,8E0,4.7E1,7.937964E-2,4.602658E-2,-3.6757162E-3],"split_indices":[0,0,14,2,0,0,0],"split_type":[0,0,0,0,0,0,0],"sum_hessian":[1.6358896E1,7.7110095E0,8.647886E0,2.3170402E0,6.3308454E0,1.113979E0,1.2030613E0],"tree_param":{"num_deleted":"0","num_feature":"27","num_nodes":"7","size_leaf_vector":"1"}},{"base_weights":[2.019987E-2,-9.1967005E-1,6.994051E-2,-7.466049E-2,9.844217E-3],"categories":[],"categories_nodes":[],"categories_segments":[],"categories_sizes":[],"default_left":[0,0,0,0,0],"id":17,"left_children":[1,3,-1,-1,-1],"loss_changes":[1.717135E1,1.6348639E0,0E0,0E0,0E0],"parents":[2147483647,0,0,1,1],"right_children":[2,4,-1,-1,-1],"split_conditions":[7.9E1,5.9E1,6.994051E-2,-7.466049E-2,9.844217E-3],"split_indices":[0,2,0,0,0],"split_type":[0,0,0,0,0],"sum_hessian":[1.666407E1,8.532627E0,8.131444E0,7.4890714E0,1.0435554E0],"tree_param":{"num_deleted":"0","num_feature":"27","num_nodes":"5","size_leaf_vector":"1"}},{"base_weights":[-5.3974967E-2,-7.232838E-2,8.084158E-1,-1.3009684E-4,6.608613E-2],"categories":[],"categories_nodes":[],"categories_segments":[],"categories_sizes":[],"default_left":[0,0,0,0,0],"id":18,"left_children":[1,-1,3,-1,-1],"loss_changes":[1.4899528E1,0E0,1.0368948E0,0E0,0E0],"parents":[2147483647,0,0,2,2],"right_children":[2,-1,4,-1,-1],"split_conditions":[7.8E1,-7.232838E-2,8E1,-1.3009684E-4,6.608613E-2],"split_indices":[0,0,0,0,0],"split_type":[0,0,0,0,0],"sum_hessian":[1.565334E1,7.237107E0,8.416233E0,1.3485534E0,7.06768E0],"tree_param":{"num_deleted":"0","num_feature":"27","num_nodes":"5","size_leaf_vector":"1"}},{"base_weights":[-2.8902441E-2,-8.390949E-1,6.5332994E-2,-7.245599E-2,2.512656E-2],"categories":[],"categories_nodes":[],"categories_segments":[],"categories_sizes":[],"default_left":[0,0,0,0,0],"id":19,"left_children":[1,3,-1,-1,-1],"loss_changes":[1.375452E1,2.6161823E0,0E0,0E0,0E0],"parents":[2147483647,0,0,1,1],"right_children":[2,4,-1,-1,-1],"split_conditions":[8E1,6.2E1,6.5332994E-2,-7.245599E-2,2.512656E-2],"split_indices":[0,2,0,0,0],"split_type":[0,0,0,0,0],"sum_hessian":[1.56386595E1,8.5595455E0,7.079114E0,7.4730372E0,1.0865078E0],"tree_param":{"num_deleted":"0","num_feature":"27","num_nodes":"5","size_leaf_vector":"1"}},{"base_weights":[-4.807175E-2,-9.013585E-1,6.445856E-2,-7.178084E-2,-7.384212E-4],"categories":[],"categories_nodes":[],"categories_segments":[],"categories_sizes":[],"default_left":[0,0,0,0,0],"id":20,"left_children":[1,3,-1,-1,-1],"loss_changes":[1.4166182E1,9.9310017E-1,0E0,0E0,0E0],"parents":[2147483647,0,0,1,1],"right_children":[2,4,-1,-1,-1],"split_conditions":[8E1,1.2E1,6.445856E-2,-7.178084E-2,-7.384212E-4],"split_indices":[0,12,0,0,0],"split_type":[0,0,0,0,0],"sum_hessian":[1.5130718E1,8.082466E0,7.0482526E0,6.9616365E0,1.1208295E0],"tree_param":{"num_deleted":"0","num_feature":"27","num_nodes":"5","size_leaf_vector":"1"}},{"base_weights":[-3.0658947E-2,-6.8968035E-2,7.175485E-1,4.654366E-3,6.1918963E-2],"categories":[],"categories_nodes":[],"categories_segments":[],"categories_sizes":[],"default_left":[0,0,0,0,0],"id":21,"left_children":[1,-1,3,-1,-1],"loss_changes":[1.1870368E1,0E0,9.5682E-1,0E0,0E0],"parents":[2147483647,0,0,2,2],"right_children":[2,-1,4,-1,-1],"split_conditions":[7.8E1,-6.8968035E-2,8E1,4.654366E-3,6.1918963E-2],"split_indices":[0,0,0,0,0],"split_type":[0,0,0,0,0],"sum_hessian":[1.4629804E1,6.2890763E0,8.340727E0,1.9881879E0,6.352539E0],"tree_param":{"num_deleted":"0","num_feature":"27","num_nodes":"5","size_leaf_vector":"1"}},{"base_weights":[1.6302623E-1,-8.0425334E-1,7.301868E-2,-6.746161E-2,2.2159277E-3],"categories":[],"categories_nodes":[],"categories_segments":[],"categories_sizes":[],"default_left":[0,0,0,0,0],"id":22,"left_children":[1,3,-1,-1,-1],"loss_changes":[1.3409587E1,1.0436196E0,0E0,0E0,0E0],"parents":[2147483647,0,0,1,1],"right_children":[2,4,-1,-1,-1],"split_conditions":[7.9E1,5.8E1,7.301868E-2,-6.746161E-2,2.2159277E-3],"split_indices":[0,2,0,0,0],"split_type":[0,0,0,0,0],"sum_hessian":[1.3766409E1,6.5994263E0,7.166983E0,5.4136333E0,1.1857927E0],"tree_param":{"num_deleted":"0","num_feature":"27","num_nodes":"5","size_leaf_vector":"1"}},{"base_weights":[-6.5272644E-2,-6.3113876E-2,7.636162E-1,1.4588211E-2,6.600608E-2],"categories":[],"categories_nodes":[],"categories_segments":[],"categories_sizes":[],"default_left":[0,0,0,0,0],"id":23,"left_children":[1,-1,3,-1,-1],"loss_changes":[1.0374195E1,0E0,5.5605364E-1,0E0,0E0],"parents":[2147483647,0,0,2,2],"right_children":[2,-1,4,-1,-1],"split_conditions":[7.9E1,-6.3113876E-2,8.8E1,1.4588211E-2,6.600608E-2],"split_indices":[0,0,3,0,0],"split_type":[0,0,0,0,0],"sum_hessian":[1.2971545E1,6.4130163E0,6.5585284E0,2.1290264E0,4.429502E0],"tree_param":{"num_deleted":"0","num_feature":"27","num_nodes":"5","size_leaf_vector":"1"}},{"base_weights":[-2.2610437E-2,-6.6023655E-2,6.982009E-1,2.5042817E-3,8.3371156E-1,2.2284202E-2,6.487241E-2],"categories":[],"categories_nodes":[],"categories_segments":[],"categories_sizes":[],"default_left":[0,0,0,0,0,0,0],"id":24,"left_children":[1,-1,3,-1,5,-1,-1],"loss_changes":[9.712747E0,0E0,7.0870733E-1,0E0,3.03154E-2,0E0,0E0],"parents":[2147483647,0,0,2,2,4,4],"right_children":[2,-1,4,-1,6,-1,-1],"split_conditions":[7.8E1,-6.6023655E-2,8E1,2.5042817E-3,8.8E1,2.2284202E-2,6.487241E-2],"split_indices":[0,0,0,0,3,0,0],"split_type":[0,0,0,0,0,0,0],"sum_hessian":[1.2644735E1,5.417392E0,7.227344E0,1.4420558E0,5.785288E0,1.5608561E0,4.224432E0],"tree_param":{"num_deleted":"0","num_feature":"27","num_nodes":"7","size_leaf_vector":"1"}},{"base_weights":[3.1085413E-2,-6.483918E-2,7.450241E-1,4.4275816E-3,6.1831146E-2],"categories":[],"categories_nodes":[],"categories_segments":[],"categories_sizes":[],"default_left":[0,0,0,0,0],"id":25,"left_children":[1,-1,3,-1,-1],"loss_changes":[9.654477E0,0E0,7.046485E-1,0E0,0E0],"parents":[2147483647,0,0,2,2],"right_children":[2,-1,4,-1,-1],"split_conditions":[7.8E1,-6.483918E-2,8E0,4.4275816E-3,6.1831146E-2],"split_indices":[0,0,14,0,0],"split_type":[0,0,0,0,0],"sum_hessian":[1.2115487E1,5.048399E0,7.067088E0,1.4374131E0,5.629675E0],"tree_param":{"num_deleted":"0","num_feature":"27","num_nodes":"5","size_leaf_vector":"1"}},{"base_weights":[-3.535329E-2,-7.215889E-1,7.958452E-1,-6.668549E-2,2.5639405E-2,1.9085841E-2,6.280492E-2],"categories":[],"categories_nodes":[],"categories_segments":[],"categories_sizes":[],"default_left":[0,0,0,0,0,0,0],"id":26,"left_children":[1,3,5,-1,-1,-1,-1],"loss_changes":[7.8752384E0,2.243145E0,8.7581635E-2,0E0,0E0,0E0,0E0],"parents":[2147483647,0,0,1,1,2,2],"right_children":[2,4,6,-1,-1,-1,-1],"split_conditions":[8E1,6.2E1,8E0,-6.668549E-2,2.5639405E-2,1.9085841E-2,6.280492E-2],"split_indices":[1,2,14,0,0,0,0],"split_type":[0,0,0,0,0,0,0],"sum_hessian":[1.1799773E1,6.5357456E0,5.264027E0,5.4932775E0,1.0424682E0,1.4532297E0,3.8107977E0],"tree_param":{"num_deleted":"0","num_feature":"27","num_nodes":"7","size_leaf_vector":"1"}},{"base_weights":[7.734745E-2,-5.743802E-2,8.45592E-1,1.9356035E-2,6.487006E-2],"categories":[],"categories_nodes":[],"categories_segments":[],"categories_sizes":[],"default_left":[0,0,0,0,0],"id":27,"left_children":[1,-1,3,-1,-1],"loss_changes":[8.874717E0,0E0,6.1542034E-2,0E0,0E0],"parents":[2147483647,0,0,2,2],"right_children":[2,-1,4,-1,-1],"split_conditions":[7.9E1,-5.743802E-2,8.2E1,1.9356035E-2,6.487006E-2],"split_indices":[0,0,0,0,0],"split_type":[0,0,0,0,0],"sum_hessian":[1.0859782E1,4.975989E0,5.883793E0,1.2841421E0,4.599651E0],"tree_param":{"num_deleted":"0","num_feature":"27","num_nodes":"5","size_leaf_vector":"1"}},{"base_weights":[5.72913E-2,-6.1466336E-2,6.9653213E-1,4.623468E-3,5.8564495E-2],"categories":[],"categories_nodes":[],"categories_segments":[],"categories_sizes":[],"default_left":[0,0,0,0,0],"id":28,"left_children":[1,-1,3,-1,-1],"loss_changes":[7.4906807E0,0E0,5.976844E-1,0E0,0E0],"parents":[2147483647,0,0,2,2],"right_children":[2,-1,4,-1,-1],"split_conditions":[7.8E1,-6.1466336E-2,8E0,4.623468E-3,5.8564495E-2],"split_indices":[1,0,14,0,0],"split_type":[0,0,0,0,0],"sum_hessian":[1.0504714E1,4.112854E0,6.3918605E0,1.4296587E0,4.962202E0],"tree_param":{"num_deleted":"0","num_feature":"27","num_nodes":"5","size_leaf_vector":"1"}},{"base_weights":[6.330379E-2,-6.051475E-2,6.750935E-1,4.945742E-3,5.6752786E-2],"categories":[],"categories_nodes":[],"categories_segments":[],"categories_sizes":[],"default_left":[0,0,0,0,0],"id":29,"left_children":[1,-1,3,-1,-1],"loss_changes":[6.959904E0,0E0,5.438559E-1,0E0,0E0],"parents":[2147483647,0,0,2,2],"right_children":[2,-1,4,-1,-1],"split_conditions":[7.8E1,-6.051475E-2,8E0,4.945742E-3,5.6752786E-2],"split_indices":[0,0,14,0,0],"split_type":[0,0,0,0,0],"sum_hessian":[1.0233401E1,3.9023266E0,6.331075E0,1.4392519E0,4.8918233E0],"tree_param":{"num_deleted":"0","num_feature":"27","num_nodes":"5","size_leaf_vector":"1"}},{"base_weights":[1.5028442E-2,-6.005543E-2,5.982012E-1,9.238004E-2,6.075252E-2,3.3496507E-2,-1.8607203E-2],"categories":[],"categories_nodes":[],"categories_segments":[],"categories_sizes":[],"default_left":[0,0,0,0,0,0,0],"id":30,"left_children":[1,-1,3,5,-1,-1,-1],"loss_changes":[6.151289E0,0E0,9.059231E-1,6.2968916E-1,0E0,0E0,0E0],"parents":[2147483647,0,0,2,2,3,3],"right_children":[2,-1,4,6,-1,-1,-1],"split_conditions":[7.8E1,-6.005543E-2,8.8E1,7.5E1,6.075252E-2,3.3496507E-2,-1.8607203E-2],"split_indices":[0,0,3,3,0,0,0],"split_type":[0,0,0,0,0,0,0],"sum_hessian":[1.0074839E1,3.8462133E0,6.2286253E0,2.6329432E0,3.5956821E0,1.1053956E0,1.5275477E0],"tree_param":{"num_deleted":"0","num_feature":"27","num_nodes":"7","size_leaf_vector":"1"}},{"base_weights":[9.559682E-3,-7.880066E-1,6.331838E-2,-6.938101E-2,8.313715E-3],"categories":[],"categories_nodes":[],"categories_segments":[],"categories_sizes":[],"default_left":[0,0,0,0,0],"id":31,"left_children":[1,3,-1,-1,-1],"loss_changes":[8.287823E0,1.2498596E0,0E0,0E0,0E0],"parents":[2147483647,0,0,1,1],"right_children":[2,4,-1,-1,-1],"split_conditions":[8E1,5.9E1,6.331838E-2,-6.938101E-2,8.313715E-3],"split_indices":[0,2,0,0,0],"split_type":[0,0,0,0,0],"sum_hessian":[9.612074E0,5.1458764E0,4.4661975E0,4.127995E0,1.0178818E0],"tree_param":{"num_deleted":"0","num_feature":"27","num_nodes":"5","size_leaf_vector":"1"}},{"base_weights":[4.400188E-2,-6.9560987E-1,6.2383313E-2,-6.1688516E-2,8.021286E-3],"categories":[],"categories_nodes":[],"categories_segments":[],"categories_sizes":[],"default_left":[0,0,0,0,0],"id":32,"left_children":[1,3,-1,-1,-1],"loss_changes":[7.091299E0,1.0148716E0,0E0,0E0,0E0],"parents":[2147483647,0,0,1,1],"right_children":[2,4,-1,-1,-1],"split_conditions":[8E1,5.9E1,6.2383313E-2,-6.1688516E-2,8.021286E-3],"split_indices":[0,2,0,0,0],"split_type":[0,0,0,0,0],"sum_hessian":[9.327926E0,5.0756793E0,4.2522464E0,4.058072E0,1.017607E0],"tree_param":{"num_deleted":"0","num_feature":"27","num_nodes":"5","size_leaf_vector":"1"}},{"base_weights":[-2.1048686E-2,-5.7290755E-2,5.12689E-1,6.979534E-2,5.6216173E-2,-2.2539524E-2,2.9811796E-2],"categories":[],"categories_nodes":[],"categories_segments":[],"categories_sizes":[],"default_left":[0,0,0,0,0,0,0],"id":33,"left_children":[1,-1,3,5,-1,-1,-1],"loss_changes":[4.552988E0,0E0,7.712877E-1,6.453192E-1,0E0,0E0,0E0],"parents":[2147483647,0,0,2,2,3,3],"right_children":[2,-1,4,6,-1,-1,-1],"split_conditions":[7.8E1,-5.7290755E-2,8.8E1,6.4E1,5.6216173E-2,-2.2539524E-2,2.9811796E-2],"split_indices":[0,0,3,2,0,0,0],"split_type":[0,0,0,0,0,0,0],"sum_hessian":[8.711956E0,3.2793212E0,5.4326344E0,2.6426375E0,2.789997E0,1.3038316E0,1.3388059E0],"tree_param":{"num_deleted":"0","num_feature":"27","num_nodes":"7","size_leaf_vector":"1"}},{"base_weights":[6.92425E-2,-5.255764E-2,5.4572827E-1,5.7313878E-2,1.5366316E-1,-2.1682182E-2,4.8919003E-2],"categories":[],"categories_nodes":[],"categories_segments":[],"categories_sizes":[],"default_left":[0,0,0,0,0,0,0],"id":34,"left_children":[1,-1,3,-1,5,-1,-1],"loss_changes":[4.2061944E0,0E0,5.9402394E-1,0E0,1.2248853E0,0E0,0E0],"parents":[2147483647,0,0,2,2,4,4],"right_children":[2,-1,4,-1,6,-1,-1],"split_conditions":[7E1,-5.255764E-2,5.8E1,5.7313878E-2,6.6E1,-2.1682182E-2,4.8919003E-2],"split_indices":[3,0,2,0,2,0,0],"split_type":[0,0,0,0,0,0,0],"sum_hessian":[8.715806E0,2.991489E0,5.7243176E0,2.732796E0,2.9915214E0,1.8504586E0,1.1410626E0],"tree_param":{"num_deleted":"0","num_feature":"27","num_nodes":"7","size_leaf_vector":"1"}},{"base_weights":[-9.176693E-2,-6.963707E-1,6.403211E-1,-5.7697598E-2,-1.0208851E-2,5.4635018E-2,6.7867353E-3],"categories":[],"categories_nodes":[],"categories_segments":[],"categories_sizes":[],"default_left":[0,0,0,0,0,0,0],"id":35,"left_children":[1,3,5,-1,-1,-1,-1],"loss_changes":[4.4749017E0,2.6449466E-1,2.776122E-1,0E0,0E0,0E0,0E0],"parents":[2147483647,0,0,1,1,2,2],"right_children":[2,4,6,-1,-1,-1,-1],"split_conditions":[8E1,1E1,6.1E1,-5.7697598E-2,-1.0208851E-2,5.4635018E-2,6.7867353E-3],"split_indices":[0,12,2,0,0,0,0],"split_type":[0,0,0,0,0,0,0],"sum_hessian":[8.102552E0,4.464379E0,3.6381736E0,3.2193673E0,1.2450118E0,2.5451562E0,1.0930175E0],"tree_param":{"num_deleted":"0","num_feature":"27","num_nodes":"7","size_leaf_vector":"1"}},{"base_weights":[2.3637135E-3,-5.4322386E-1,6.3236564E-1,-5.6248847E-2,4.9671535E-3,5.4354716E-2,5.0282003E-3],"categories":[],"categories_nodes":[],"categories_segments":[],"categories_sizes":[],"default_left":[0,0,0,0,0,0,0],"id":36,"left_children":[1,3,5,-1,-1,-1,-1],"loss_changes":[3.396453E0,9.0409255E-1,3.1458068E-1,0E0,0E0,0E0,0E0],"parents":[2147483647,0,0,1,1,2,2],"right_children":[2,4,6,-1,-1,-1,-1],"split_conditions":[8E1,1E1,6.1E1,-5.6248847E-2,4.9671535E-3,5.4354716E-2,5.0282003E-3],"split_indices":[0,12,2,0,0,0,0],"split_type":[0,0,0,0,0,0,0],"sum_hessian":[7.8820143E0,4.297812E0,3.5842028E0,2.801866E0,1.4959457E0,2.5446246E0,1.0395782E0],"tree_param":{"num_deleted":"0","num_feature":"27","num_nodes":"7","size_leaf_vector":"1"}},{"base_weights":[2.6845058E-2,-5.3957738E-2,5.0040543E-1,1.2893109E-1,5.332348E-2,3.0937698E-2,-2.487809E-2],"categories":[],"categories_nodes":[],"categories_segments":[],"categories_sizes":[],"default_left":[0,0,0,0,0,0,0],"id":37,"left_children":[1,-1,3,5,-1,-1,-1],"loss_changes":[3.7512414E0,0E0,5.0342774E-1,7.276024E-1,0E0,0E0,0E0],"parents":[2147483647,0,0,2,2,3,3],"right_children":[2,-1,4,6,-1,-1,-1],"split_conditions":[7.8E1,-5.3957738E-2,8.8E1,7.8E1,5.332348E-2,3.0937698E-2,-2.487809E-2],"split_indices":[0,0,3,3,0,0,0],"split_type":[0,0,0,0,0,0,0],"sum_hessian":[7.909496E0,2.7126157E0,5.1968803E0,2.763034E0,2.433846E0,1.7314358E0,1.0315984E0],"tree_param":{"num_deleted":"0","num_feature":"27","num_nodes":"7","size_leaf_vector":"1"}},{"base_weights":[7.3842905E-2,-5.349461E-2,5.672032E-1,-3.861583E-3,5.086236E-2],"categories":[],"categories_nodes":[],"categories_segments":[],"categories_sizes":[],"default_left":[0,0,0,0,0],"id":38,"left_children":[1,-1,3,-1,-1],"loss_changes":[4.0402474E0,0E0,6.417612E-1,0E0,0E0],"parents":[2147483647,0,0,2,2],"right_children":[2,-1,4,-1,-1],"split_conditions":[7.8E1,-5.349461E-2,8E0,-3.861583E-3,5.086236E-2],"split_indices":[0,0,14,0,0],"split_type":[0,0,0,0,0],"sum_hessian":[7.723391E0,2.6585057E0,5.064885E0,1.1660569E0,3.8988285E0],"tree_param":{"num_deleted":"0","num_feature":"27","num_nodes":"5","size_leaf_vector":"1"}},{"base_weights":[-6.660996E-2,-4.5294586E-1,5.0903417E-2,-5.987823E-2,2.2925898E-1,1.5768858E-3,2.2164756E-2],"categories":[],"categories_nodes":[],"categories_segments":[],"categories_sizes":[],"default_left":[0,0,0,0,0,0,0],"id":39,"left_children":[1,3,-1,-1,5,-1,-1],"loss_changes":[2.9017236E0,1.9143429E0,0E0,0E0,4.905963E-2,0E0,0E0],"parents":[2147483647,0,0,1,1,4,4],"right_children":[2,4,-1,-1,6,-1,-1],"split_conditions":[8.8E1,1E1,5.0903417E-2,-5.987823E-2,6.3E1,1.5768858E-3,2.2164756E-2],"split_indices":[3,12,0,0,2,0,0],"split_type":[0,0,0,0,0,0,0],"sum_hessian":[7.38788E0,5.2581725E0,2.129707E0,3.1474795E0,2.1106932E0,1.0007753E0,1.1099178E0],"tree_param":{"num_deleted":"0","num_feature":"27","num_nodes":"7","size_leaf_vector":"1"}},{"base_weights":[-7.371133E-2,-6.194064E-1,5.764579E-1,-6.437993E-2,1.7033447E-2,5.0955035E-2,3.7367672E-3],"categories":[],"categories_nodes":[],"categories_segments":[],"categories_sizes":[],"default_left":[0,0,0,0,0,0,0],"id":40,"left_children":[1,3,5,-1,-1,-1,-1],"loss_changes":[3.173982E0,1.4670674E0,2.8923154E-1,0E0,0E0,0E0,0E0],"parents":[2147483647,0,0,1,1,2,2],"right_children":[2,4,6,-1,-1,-1,-1],"split_conditions":[8E1,5.9E1,6.1E1,-6.437993E-2,1.7033447E-2,5.0955035E-2,3.7367672E-3],"split_indices":[0,2,2,0,0,0,0],"split_type":[0,0,0,0,0,0,0],"sum_hessian":[6.9395905E0,3.7986512E0,3.1409395E0,2.7688289E0,1.0298223E0,2.1319432E0,1.0089964E0],"tree_param":{"num_deleted":"0","num_feature":"27","num_nodes":"7","size_leaf_vector":"1"}},{"base_weights":[-3.1093804E-3,-3.9258772E-1,5.0773896E-2,-6.045927E-2,1.8382423E-2],"categories":[],"categories_nodes":[],"categories_segments":[],"categories_sizes":[],"default_left":[0,0,0,0,0],"id":41,"left_children":[1,3,-1,-1,-1],"loss_changes":[2.5614512E0,2.041091E0,0E0,0E0,0E0],"parents":[2147483647,0,0,1,1],"right_children":[2,4,-1,-1,-1],"split_conditions":[8.8E1,1E1,5.0773896E-2,-6.045927E-2,1.8382423E-2],"split_indices":[3,12,0,0,0],"split_type":[0,0,0,0,0],"sum_hessian":[7.0245476E0,4.87768E0,2.146868E0,2.6523032E0,2.2253766E0],"tree_param":{"num_deleted":"0","num_feature":"27","num_nodes":"5","size_leaf_vector":"1"}},{"base_weights":[-8.236411E-3,-3.8365063E-1,4.9279947E-2,-6.370919E-2,2.0161148E-2],"categories":[],"categories_nodes":[],"categories_segments":[],"categories_sizes":[],"default_left":[0,0,0,0,0],"id":42,"left_children":[1,3,-1,-1,-1],"loss_changes":[2.3059618E0,2.2541604E0,0E0,0E0,0E0],"parents":[2147483647,0,0,1,1],"right_children":[2,4,-1,-1,-1],"split_conditions":[8.8E1,1E1,4.9279947E-2,-6.370919E-2,2.0161148E-2],"split_indices":[3,12,0,0,0],"split_type":[0,0,0,0,0],"sum_hessian":[6.6140556E0,4.633248E0,1.980808E0,2.3983147E0,2.234933E0],"tree_param":{"num_deleted":"0","num_feature":"27","num_nodes":"5","size_leaf_vector":"1"}},{"base_weights":[2.9577265E-2,-4.6877593E-2,6.284851E-1,7.5217998E-3,5.419573E-2],"categories":[],"categories_nodes":[],"categories_segments":[],"categories_sizes":[],"default_left":[0,0,0,0,0],"id":43,"left_children":[1,-1,3,-1,-1],"loss_changes":[3.434871E0,0E0,2.503481E-1,0E0,0E0],"parents":[2147483647,0,0,2,2],"right_children":[2,-1,4,-1,-1],"split_conditions":[7.9E1,-4.6877593E-2,9E0,7.5217998E-3,5.419573E-2],"split_indices":[0,0,14,0,0],"split_type":[0,0,0,0,0],"sum_hessian":[6.1968846E0,2.8044128E0,3.3924716E0,1.1212428E0,2.2712288E0],"tree_param":{"num_deleted":"0","num_feature":"27","num_nodes":"5","size_leaf_vector":"1"}},{"base_weights":[7.895477E-3,-4.75639E-2,3.6373293E-1,3.5946738E-2,4.7414012E-2,2.1116387E-2,-2.2935273E-2],"categories":[],"categories_nodes":[],"categories_segments":[],"categories_sizes":[],"default_left":[0,0,0,0,0,0,0],"id":44,"left_children":[1,-1,3,5,-1,-1,-1],"loss_changes":[2.0749063E0,0E0,5.487491E-1,4.6422312E-1,0E0,0E0,0E0],"parents":[2147483647,0,0,2,2,3,3],"right_children":[2,-1,4,6,-1,-1,-1],"split_conditions":[7.8E1,-4.75639E-2,8.8E1,7.8E1,4.7414012E-2,2.1116387E-2,-2.2935273E-2],"split_indices":[0,0,3,3,0,0,0],"split_type":[0,0,0,0,0,0,0],"sum_hessian":[6.4725666E0,1.897529E0,4.5750375E0,2.7819536E0,1.7930839E0,1.7057285E0,1.076225E0],"tree_param":{"num_deleted":"0","num_feature":"27","num_nodes":"7","size_leaf_vector":"1"}},{"base_weights":[-7.034896E-2,-4.5820814E-1,4.7395293E-2,-5.90168E-2,9.527409E-3],"categories":[],"categories_nodes":[],"categories_segments":[],"categories_sizes":[],"default_left":[0,0,0,0,0],"id":45,"left_children":[1,3,-1,-1,-1],"loss_changes":[2.3473403E0,1.3094144E0,0E0,0E0,0E0],"parents":[2147483647,0,0,1,1],"right_children":[2,4,-1,-1,-1],"split_conditions":[8.8E1,1E1,4.7395293E-2,-5.90168E-2,9.527409E-3],"split_indices":[3,12,0,0,0],"split_type":[0,0,0,0,0],"sum_hessian":[6.0270104E0,4.2226906E0,1.8043197E0,2.308838E0,1.9138528E0],"tree_param":{"num_deleted":"0","num_feature":"27","num_nodes":"5","size_leaf_vector":"1"}},{"base_weights":[1.0933506E-2,-4.609584E-2,3.465597E-1,2.8322922E-2,4.6268556E-2,1.9855948E-2,-2.1587413E-2],"categories":[],"categories_nodes":[],"categories_segments":[],"categories_sizes":[],"default_left":[0,0,0,0,0,0,0],"id":46,"left_children":[1,-1,3,5,-1,-1,-1],"loss_changes":[1.846339E0,0E0,5.268132E-1,4.102562E-1,0E0,0E0,0E0],"parents":[2147483647,0,0,2,2,3,3],"right_children":[2,-1,4,6,-1,-1,-1],"split_conditions":[7.8E1,-4.609584E-2,8.8E1,7.8E1,4.6268556E-2,1.9855948E-2,-2.1587413E-2],"split_indices":[1,0,3,3,0,0,0],"split_type":[0,0,0,0,0,0,0],"sum_hessian":[6.2018E0,1.7497267E0,4.452073E0,2.7543576E0,1.6977158E0,1.6560993E0,1.0982581E0],"tree_param":{"num_deleted":"0","num_feature":"27","num_nodes":"7","size_leaf_vector":"1"}},{"base_weights":[3.9751284E-2,-4.3820743E-2,3.65551E-1,5.503269E-1,-6.316363E-3,-5.125168E-3,5.7638954E-2],"categories":[],"categories_nodes":[],"categories_segments":[],"categories_sizes":[],"default_left":[0,0,0,0,0,0,0],"id":47,"left_children":[1,-1,3,5,-1,-1,-1],"loss_changes":[1.6637175E0,0E0,4.7689557E-1,6.989294E-1,0E0,0E0,0E0],"parents":[2147483647,0,0,2,2,3,3],"right_children":[2,-1,4,6,-1,-1,-1],"split_conditions":[7.8E1,-4.3820743E-2,1.8E1,9E0,-6.316363E-3,-5.125168E-3,5.7638954E-2],"split_indices":[0,0,14,14,0,0,0],"split_type":[0,0,0,0,0,0,0],"sum_hessian":[5.61524E0,1.5422468E0,4.0729933E0,2.7505064E0,1.3224868E0,1.0606344E0,1.689872E0],"tree_param":{"num_deleted":"0","num_feature":"27","num_nodes":"7","size_leaf_vector":"1"}},{"base_weights":[1.03587925E-1,-4.3303598E-2,4.4524172E-1,-3.0578969E-3,4.6706926E-2],"categories":[],"categories_nodes":[],"categories_segments":[],"categories_sizes":[],"default_left":[0,0,0,0,0],"id":48,"left_children":[1,-1,3,-1,-1],"loss_changes":[1.8750173E0,0E0,5.699354E-1,0E0,0E0],"parents":[2147483647,0,0,2,2],"right_children":[2,-1,4,-1,-1],"split_conditions":[7.8E1,-4.3303598E-2,1E1,-3.0578969E-3,4.6706926E-2],"split_indices":[1,0,12,0,0],"split_type":[0,0,0,0,0],"sum_hessian":[5.4827003E0,1.5003943E0,3.982306E0,1.4943722E0,2.4879339E0],"tree_param":{"num_deleted":"0","num_feature":"27","num_nodes":"5","size_leaf_vector":"1"}},{"base_weights":[9.455351E-2,-4.1194242E-1,5.1546503E-2,-5.1570613E-2,2.1001933E-2],"categories":[],"categories_nodes":[],"categories_segments":[],"categories_sizes":[],"default_left":[0,0,0,0,0],"id":49,"left_children":[1,3,-1,-1,-1],"loss_changes":[2.4341352E0,1.2164557E0,0E0,0E0,0E0],"parents":[2147483647,0,0,1,1],"right_children":[2,4,-1,-1,-1],"split_conditions":[8E1,6.2E1,5.1546503E-2,-5.1570613E-2,2.1001933E-2],"split_indices":[0,2,0,0,0],"split_type":[0,0,0,0,0],"sum_hessian":[5.5546265E0,3.3048086E0,2.2498176E0,2.2456427E0,1.059166E0],"tree_param":{"num_deleted":"0","num_feature":"27","num_nodes":"5","size_leaf_vector":"1"}},{"base_weights":[6.7079365E-2,-4.0497396E-2,5.68903E-1,5.245721E-3,5.0675593E-2],"categories":[],"categories_nodes":[],"categories_segments":[],"categories_sizes":[],"default_left":[0,0,0,0,0],"id":50,"left_children":[1,-1,3,-1,-1],"loss_changes":[2.3046973E0,0E0,2.4710596E-1,0E0,0E0],"parents":[2147483647,0,0,2,2],"right_children":[2,-1,4,-1,-1],"split_conditions":[7.9E1,-4.0497396E-2,9E0,5.245721E-3,5.0675593E-2],"split_indices":[0,0,14,0,0],"split_type":[0,0,0,0,0],"sum_hessian":[5.0977283E0,2.162602E0,2.9351263E0,1.0554996E0,1.8796266E0],"tree_param":{"num_deleted":"0","num_feature":"27","num_nodes":"5","size_leaf_vector":"1"}},{"base_weights":[3.166898E-2,-4.2781495E-2,3.6631224E-1,-2.2545438E-3,5.6080836E-1,5.130086E-2,8.561903E-3],"categories":[],"categories_nodes":[],"categories_segments":[],"categories_sizes":[],"default_left":[0,0,0,0,0,0,0],"id":51,"left_children":[1,-1,3,-1,5,-1,-1],"loss_changes":[1.5381455E0,0E0,3.779531E-1,0E0,1.4987701E-1,0E0,0E0],"parents":[2147483647,0,0,2,2,4,4],"right_children":[2,-1,4,-1,6,-1,-1],"split_conditions":[7.8E1,-4.2781495E-2,1E1,-2.2545438E-3,1.4E1,5.130086E-2,8.561903E-3],"split_indices":[0,0,12,0,12,0,0],"split_type":[0,0,0,0,0,0,0],"sum_hessian":[5.1094737E0,1.4663576E0,3.6431162E0,1.4685272E0,2.1745892E0,1.0796273E0,1.0949619E0],"tree_param":{"num_deleted":"0","num_feature":"27","num_nodes":"7","size_leaf_vector":"1"}},{"base_weights":[-2.770937E-2,-3.3913702E-1,4.2811677E-2,-4.989815E-2,1.0918407E-2],"categories":[],"categories_nodes":[],"categories_segments":[],"categories_sizes":[],"default_left":[0,0,0,0,0],"id":52,"left_children":[1,3,-1,-1,-1],"loss_changes":[1.4607897E0,1.0134327E0,0E0,0E0,0E0],"parents":[2147483647,0,0,1,1],"right_children":[2,4,-1,-1,-1],"split_conditions":[8.8E1,1E1,4.2811677E-2,-4.989815E-2,1.0918407E-2],"split_indices":[3,12,0,0,0],"split_type":[0,0,0,0,0],"sum_hessian":[5.295293E0,3.8764575E0,1.4188355E0,1.9585143E0,1.917943E0],"tree_param":{"num_deleted":"0","num_feature":"27","num_nodes":"5","size_leaf_vector":"1"}},{"base_weights":[2.1165355E-1,-4.0194467E-2,5.613185E-1,-5.6556687E-3,5.3981718E-2],"categories":[],"categories_nodes":[],"categories_segments":[],"categories_sizes":[],"default_left":[0,0,0,0,0],"id":53,"left_children":[1,-1,3,-1,-1],"loss_changes":[1.9088382E0,0E0,6.6885924E-1,0E0,0E0],"parents":[2147483647,0,0,2,2],"right_children":[2,-1,4,-1,-1],"split_conditions":[7.8E1,-4.0194467E-2,7E0,-5.6556687E-3,5.3981718E-2],"split_indices":[0,0,12,0,0],"split_type":[0,0,0,0,0],"sum_hessian":[4.773639E0,1.2722154E0,3.5014236E0,1.0139217E0,2.487502E0],"tree_param":{"num_deleted":"0","num_feature":"27","num_nodes":"5","size_leaf_vector":"1"}},{"base_weights":[1.014608E-1,-4.0829876E-1,5.2622694E-1,-3.9902043E-2,-2.276836E-3,3.915061E-3,4.7925137E-2],"categories":[],"categories_nodes":[],"categories_segments":[],"categories_sizes":[],"default_left":[0,0,0,0,0,0,0],"id":54,"left_children":[1,3,5,-1,-1,-1,-1],"loss_changes":[1.4982905E0,1.7941248E-1,2.3514366E-1,0E0,0E0,0E0,0E0],"parents":[2147483647,0,0,1,1,2,2],"right_children":[2,4,6,-1,-1,-1,-1],"split_conditions":[7.9E1,5.3E1,1E1,-3.9902043E-2,-2.276836E-3,3.915061E-3,4.7925137E-2],"split_indices":[1,2,14,0,0,0,0],"split_type":[0,0,0,0,0,0,0],"sum_hessian":[4.927313E0,2.2572124E0,2.6701005E0,1.216629E0,1.0405834E0,1.0137162E0,1.6563842E0],"tree_param":{"num_deleted":"0","num_feature":"27","num_nodes":"7","size_leaf_vector":"1"}},{"base_weights":[-2.2867726E-2,-3.5134947E-1,4.2972986E-2,-4.8379194E-2,8.2599325E-3],"categories":[],"categories_nodes":[],"categories_segments":[],"categories_sizes":[],"default_left":[0,0,0,0,0],"id":55,"left_children":[1,3,-1,-1,-1],"loss_changes":[1.4732238E0,8.1548417E-1,0E0,0E0,0E0],"parents":[2147483647,0,0,1,1],"right_children":[2,4,-1,-1,-1],"split_conditions":[8.3E1,1E1,4.2972986E-2,-4.8379194E-2,8.2599325E-3],"split_indices":[0,12,0,0,0],"split_type":[0,0,0,0,0],"sum_hessian":[5.012103E0,3.6021392E0,1.4099636E0,1.8153759E0,1.7867633E0],"tree_param":{"num_deleted":"0","num_feature":"27","num_nodes":"5","size_leaf_vector":"1"}},{"base_weights":[-1.6637804E-4,-4.0174693E-2,4.7905233E-2],"categories":[],"categories_nodes":[],"categories_segments":[],"categories_sizes":[],"default_left":[0,0,0],"id":56,"left_children":[1,-1,-1],"loss_changes":[2.4235454E0,0E0,0E0],"parents":[2147483647,0,0],"right_children":[2,-1,-1],"split_conditions":[8E1,-4.0174693E-2,4.7905233E-2],"split_indices":[0,0,0],"split_type":[0,0,0],"sum_hessian":[4.1706195E0,2.3567827E0,1.8138368E0],"tree_param":{"num_deleted":"0","num_feature":"27","num_nodes":"3","size_leaf_vector":"1"}},{"base_weights":[-1.391817E-1,-4.0397134E-2,3.9492735E-1,3.7864002E-3,3.7560195E-2],"categories":[],"categories_nodes":[],"categories_segments":[],"categories_sizes":[],"default_left":[0,0,0,0,0],"id":57,"left_children":[1,-1,3,-1,-1],"loss_changes":[1.5158762E0,0E0,1.1940867E-1,0E0,0E0],"parents":[2147483647,0,0,2,2],"right_children":[2,-1,4,-1,-1],"split_conditions":[8E1,-4.0397134E-2,1.1E1,3.7864002E-3,3.7560195E-2],"split_indices":[0,0,14,0,0],"split_type":[0,0,0,0,0],"sum_hessian":[4.5065355E0,2.4320138E0,2.0745215E0,1.0147258E0,1.0597959E0],"tree_param":{"num_deleted":"0","num_feature":"27","num_nodes":"5","size_leaf_vector":"1"}},{"base_weights":[-1.12370335E-1,-3.878545E-1,3.650503E-2,-5.4178223E-2,6.6795545E-3],"categories":[],"categories_nodes":[],"categories_segments":[],"categories_sizes":[],"default_left":[0,0,0,0,0],"id":58,"left_children":[1,3,-1,-1,-1],"loss_changes":[1.1177281E0,8.627806E-1,0E0,0E0,0E0],"parents":[2147483647,0,0,1,1],"right_children":[2,4,-1,-1,-1],"split_conditions":[8.8E1,1E1,3.650503E-2,-5.4178223E-2,6.6795545E-3],"split_indices":[3,12,0,0,0],"split_type":[0,0,0,0,0],"sum_hessian":[4.242555E0,3.2278352E0,1.0147198E0,1.4599084E0,1.7679268E0],"tree_param":{"num_deleted":"0","num_feature":"27","num_nodes":"5","size_leaf_vector":"1"}},{"base_weights":[3.242542E-2,-2.4938397E-1,4.0575016E-2,-4.5112003E-2,1.283554E-2],"categories":[],"categories_nodes":[],"categories_segments":[],"categories_sizes":[],"default_left":[0,0,0,0,0],"id":59,"left_children":[1,3,-1,-1,-1],"loss_changes":[1.0275764E0,8.838999E-1,0E0,0E0,0E0],"parents":[2147483647,0,0,1,1],"right_children":[2,4,-1,-1,-1],"split_conditions":[8.3E1,1E1,4.0575016E-2,-4.5112003E-2,1.283554E-2],"split_indices":[0,12,0,0,0],"split_type":[0,0,0,0,0],"sum_hessian":[4.726065E0,3.478801E0,1.2472643E0,1.5628222E0,1.9159787E0],"tree_param":{"num_deleted":"0","num_feature":"27","num_nodes":"5","size_leaf_vector":"1"}},{"base_weights":[5.1483385E-2,-2.197946E-1,3.9429385E-2,-4.2669594E-2,1.2519877E-2],"categories":[],"categories_nodes":[],"categories_segments":[],"categories_sizes":[],"default_left":[0,0,0,0,0],"id":60,"left_children":[1,3,-1,-1,-1],"loss_changes":[8.912645E-1,7.8215206E-1,0E0,0E0,0E0],"parents":[2147483647,0,0,1,1],"right_children":[2,4,-1,-1,-1],"split_conditions":[8.8E1,1E1,3.9429385E-2,-4.2669594E-2,1.2519877E-2],"split_indices":[3,12,0,0,0],"split_type":[0,0,0,0,0],"sum_hessian":[4.527719E0,3.3320792E0,1.1956397E0,1.4172856E0,1.9147935E0],"tree_param":{"num_deleted":"0","num_feature":"27","num_nodes":"5","size_leaf_vector":"1"}},{"base_weights":[-6.556904E-2,-3.5252655E-1,3.7617106E-2,-4.574129E-2,5.609509E-3],"categories":[],"categories_nodes":[],"categories_segments":[],"categories_sizes":[],"default_left":[0,0,0,0,0],"id":61,"left_children":[1,3,-1,-1,-1],"loss_changes":[1.083026E0,5.865717E-1,0E0,0E0,0E0],"parents":[2147483647,0,0,1,1],"right_children":[2,4,-1,-1,-1],"split_conditions":[8.3E1,5.9E1,3.7617106E-2,-4.574129E-2,5.609509E-3],"split_indices":[0,2,0,0,0],"split_type":[0,0,0,0,0],"sum_hessian":[4.164537E0,3.1030688E0,1.0614684E0,1.5292022E0,1.5738665E0],"tree_param":{"num_deleted":"0","num_feature":"27","num_nodes":"5","size_leaf_vector":"1"}},{"base_weights":[-2.098519E-2,-3.0006653E-1,3.8158115E-2,-4.6654552E-2,8.586356E-3],"categories":[],"categories_nodes":[],"categories_segments":[],"categories_sizes":[],"default_left":[0,0,0,0,0],"id":62,"left_children":[1,3,-1,-1,-1],"loss_changes":[1.0078362E0,7.36089E-1,0E0,0E0,0E0],"parents":[2147483647,0,0,1,1],"right_children":[2,4,-1,-1,-1],"split_conditions":[8.8E1,1E1,3.8158115E-2,-4.6654552E-2,8.586356E-3],"split_indices":[3,12,0,0,0],"split_type":[0,0,0,0,0],"sum_hessian":[4.343847E0,3.2242637E0,1.119583E0,1.4182551E0,1.8060086E0],"tree_param":{"num_deleted":"0","num_feature":"27","num_nodes":"5","size_leaf_vector":"1"}},{"base_weights":[-5.2828405E-2,-3.836489E-1,2.4032822E-2,-5.6188192E-2,1.9036373E-2],"categories":[],"categories_nodes":[],"categories_segments":[],"categories_sizes":[],"default_left":[0,0,0,0,0],"id":63,"left_children":[1,3,-1,-1,-1],"loss_changes":[7.946674E-1,1.10532E0,0E0,0E0,0E0],"parents":[2147483647,0,0,1,1],"right_children":[2,4,-1,-1,-1],"split_conditions":[8E1,6.2E1,2.4032822E-2,-5.6188192E-2,1.9036373E-2],"split_indices":[0,2,0,0,0],"split_type":[0,0,0,0,0],"sum_hessian":[4.05853E0,2.2288392E0,1.8296909E0,1.2228589E0,1.0059801E0],"tree_param":{"num_deleted":"0","num_feature":"27","num_nodes":"5","size_leaf_vector":"1"}},{"base_weights":[4.349484E-2,-2.0173319E-1,3.6580406E-2,-3.8904473E-2,1.027307E-2],"categories":[],"categories_nodes":[],"categories_segments":[],"categories_sizes":[],"default_left":[0,0,0,0,0],"id":64,"left_children":[1,3,-1,-1,-1],"loss_changes":[7.130677E-1,5.9267414E-1,0E0,0E0,0E0],"parents":[2147483647,0,0,1,1],"right_children":[2,4,-1,-1,-1],"split_conditions":[8.8E1,1E1,3.6580406E-2,-3.8904473E-2,1.027307E-2],"split_indices":[3,12,0,0,0],"split_type":[0,0,0,0,0],"sum_hessian":[4.1721454E0,3.1425068E0,1.0296384E0,1.2637775E0,1.8787295E0],"tree_param":{"num_deleted":"0","num_feature":"27","num_nodes":"5","size_leaf_vector":"1"}},{"base_weights":[1.6466208E-2,-2.756795E-1,2.4816029E-2,-4.2254772E-2,1.7056584E-2],"categories":[],"categories_nodes":[],"categories_segments":[],"categories_sizes":[],"default_left":[0,0,0,0,0],"id":65,"left_children":[1,3,-1,-1,-1],"loss_changes":[6.1706513E-1,7.233525E-1,0E0,0E0,0E0],"parents":[2147483647,0,0,1,1],"right_children":[2,4,-1,-1,-1],"split_conditions":[8E1,5.9E1,2.4816029E-2,-4.2254772E-2,1.7056584E-2],"split_indices":[0,2,0,0,0],"split_type":[0,0,0,0,0],"sum_hessian":[4.2585635E0,2.3833447E0,1.875219E0,1.3613555E0,1.0219891E0],"tree_param":{"num_deleted":"0","num_feature":"27","num_nodes":"5","size_leaf_vector":"1"}},{"base_weights":[-5.5570748E-2,-3.3410907E-2,2.317735E-2],"categories":[],"categories_nodes":[],"categories_segments":[],"categories_sizes":[],"default_left":[0,0,0],"id":66,"left_children":[1,-1,-1],"loss_changes":[8.477124E-1,0E0,0E0],"parents":[2147483647,0,0],"right_children":[2,-1,-1],"split_conditions":[7.9E1,-3.3410907E-2,2.317735E-2],"split_indices":[0,0,0],"split_type":[0,0,0],"sum_hessian":[3.2292776E0,1.4325274E0,1.7967502E0],"tree_param":{"num_deleted":"0","num_feature":"27","num_nodes":"3","size_leaf_vector":"1"}},{"base_weights":[7.351541E-2,-1.8696947E-2,2.770487E-2],"categories":[],"categories_nodes":[],"categories_segments":[],"categories_sizes":[],"default_left":[0,0,0],"id":67,"left_children":[1,-1,-1],"loss_changes":[6.2128943E-1,0E0,0E0],"parents":[2147483647,0,0],"right_children":[2,-1,-1],"split_conditions":[1E1,-1.8696947E-2,2.770487E-2],"split_indices":[12,0,0],"split_type":[0,0,0],"sum_hessian":[3.6969018E0,1.8805188E0,1.816383E0],"tree_param":{"num_deleted":"0","num_feature":"27","num_nodes":"3","size_leaf_vector":"1"}},{"base_weights":[-2.3579415E-2,-2.7414048E-1,2.0835629E-2,-4.1739702E-2,1.6426664E-2],"categories":[],"categories_nodes":[],"categories_segments":[],"categories_sizes":[],"default_left":[0,0,0,0,0],"id":68,"left_children":[1,3,-1,-1,-1],"loss_changes":[4.8374507E-1,6.853293E-1,0E0,0E0,0E0],"parents":[2147483647,0,0,1,1],"right_children":[2,4,-1,-1,-1],"split_conditions":[8E1,5.9E1,2.0835629E-2,-4.1739702E-2,1.6426664E-2],"split_indices":[0,2,0,0,0],"split_type":[0,0,0,0,0],"sum_hessian":[3.996353E0,2.3274958E0,1.6688572E0,1.3199044E0,1.0075914E0],"tree_param":{"num_deleted":"0","num_feature":"27","num_nodes":"5","size_leaf_vector":"1"}},{"base_weights":[-1.4965086E-2,-2.6008675E-1,2.0527054E-2,-4.0278345E-2,1.587924E-2],"categories":[],"categories_nodes":[],"categories_segments":[],"categories_sizes":[],"default_left":[0,0,0,0,0],"id":69,"left_children":[1,3,-1,-1,-1],"loss_changes":[4.484218E-1,6.3318074E-1,0E0,0E0,0E0],"parents":[2147483647,0,0,1,1],"right_children":[2,4,-1,-1,-1],"split_conditions":[8E1,5.9E1,2.0527054E-2,-4.0278345E-2,1.587924E-2],"split_indices":[0,2,0,0,0],"split_type":[0,0,0,0,0],"sum_hessian":[3.9260066E0,2.2737796E0,1.6522269E0,1.2698098E0,1.0039697E0],"tree_param":{"num_deleted":"0","num_feature":"27","num_nodes":"5","size_leaf_vector":"1"}},{"base_weights":[-5.249014E-2,-3.0824376E-2,1.8477394E-1,3.8354408E-2,-2.0582354E-2],"categories":[],"categories_nodes":[],"categories_segments":[],"categories_sizes":[],"default_left":[0,0,0,0,0],"id":70,"left_children":[1,-1,3,-1,-1],"loss_changes":[5.100205E-1,0E0,7.8611016E-1,0E0,0E0],"parents":[2147483647,0,0,2,2],"right_children":[2,-1,4,-1,-1],"split_conditions":[7E0,-3.0824376E-2,1.8E1,3.8354408E-2,-2.0582354E-2],"split_indices":[12,0,14,0,0],"split_type":[0,0,0,0,0],"sum_hessian":[3.6580448E0,1.0635337E0,2.594511E0,1.3933771E0,1.201134E0],"tree_param":{"num_deleted":"0","num_feature":"27","num_nodes":"5","size_leaf_vector":"1"}},{"base_weights":[-6.794278E-2,-4.8941858E-2,2.8414369E-2],"categories":[],"categories_nodes":[],"categories_segments":[],"categories_sizes":[],"default_left":[0,0,0],"id":71,"left_children":[1,-1,-1],"loss_changes":[1.5128199E0,0E0,0E0],"parents":[2147483647,0,0],"right_children":[2,-1,-1],"split_conditions":[7.9E1,-4.8941858E-2,2.8414369E-2],"split_indices":[0,0,0],"split_type":[0,0,0],"sum_hessian":[3.1088383E0,1.129189E0,1.9796494E0],"tree_param":{"num_deleted":"0","num_feature":"27","num_nodes":"3","size_leaf_vector":"1"}},{"base_weights":[1.4442271E-2,-1.588123E-2,2.070982E-2],"categories":[],"categories_nodes":[],"categories_segments":[],"categories_sizes":[],"default_left":[0,0,0],"id":72,"left_children":[1,-1,-1],"loss_changes":[3.9547294E-1,0E0,0E0],"parents":[2147483647,0,0],"right_children":[2,-1,-1],"split_conditions":[8E1,-1.588123E-2,2.070982E-2],"split_indices":[0,0,0],"split_type":[0,0,0],"sum_hessian":[3.8351219E0,2.1689775E0,1.6661445E0],"tree_param":{"num_deleted":"0","num_feature":"27","num_nodes":"3","size_leaf_vector":"1"}},{"base_weights":[-1.0912046E-2,-2.057132E-2,1.5837051E-2],"categories":[],"categories_nodes":[],"categories_segments":[],"categories_sizes":[],"default_left":[0,0,0],"id":73,"left_children":[1,-1,-1],"loss_changes":[3.8051093E-1,0E0,0E0],"parents":[2147483647,0,0],"right_children":[2,-1,-1],"split_conditions":[1E1,-2.057132E-2,1.5837051E-2],"split_indices":[12,0,0],"split_type":[0,0,0],"sum_hessian":[3.6794777E0,1.5686556E0,2.110822E0],"tree_param":{"num_deleted":"0","num_feature":"27","num_nodes":"3","size_leaf_vector":"1"}},{"base_weights":[-1.87975E-2,-2.033572E-2,1.4892956E-2],"categories":[],"categories_nodes":[],"categories_segments":[],"categories_sizes":[],"default_left":[0,0,0],"id":74,"left_children":[1,-1,-1],"loss_changes":[3.4659773E-1,0E0,0E0],"parents":[2147483647,0,0],"right_children":[2,-1,-1],"split_conditions":[1E1,-2.033572E-2,1.4892956E-2],"split_indices":[12,0,0],"split_type":[0,0,0],"sum_hessian":[3.5264943E0,1.5053996E0,2.0210948E0],"tree_param":{"num_deleted":"0","num_feature":"27","num_nodes":"3","size_leaf_vector":"1"}},{"base_weights":[-2.9307721E-2,-2.7707879E-2,1.881019E-1,3.8587537E-2,-1.926735E-2],"categories":[],"categories_nodes":[],"categories_segments":[],"categories_sizes":[],"default_left":[0,0,0,0,0],"id":75,"left_children":[1,-1,3,-1,-1],"loss_changes":[4.4706956E-1,0E0,7.59663E-1,0E0,0E0],"parents":[2147483647,0,0,2,2],"right_children":[2,-1,4,-1,-1],"split_conditions":[7E0,-2.7707879E-2,1.8E1,3.8587537E-2,-1.926735E-2],"split_indices":[12,0,14,0,0],"split_type":[0,0,0,0,0],"sum_hessian":[3.676097E0,1.0631462E0,2.6129508E0,1.3585138E0,1.254437E0],"tree_param":{"num_deleted":"0","num_feature":"27","num_nodes":"5","size_leaf_vector":"1"}},{"base_weights":[-7.9779565E-2,-2.6244963E-2,1.9564837E-2],"categories":[],"categories_nodes":[],"categories_segments":[],"categories_sizes":[],"default_left":[0,0,0],"id":76,"left_children":[1,-1,-1],"loss_changes":[5.8184665E-1,0E0,0E0],"parents":[2147483647,0,0],"right_children":[2,-1,-1],"split_conditions":[8E1,-2.6244963E-2,1.9564837E-2],"split_indices":[0,0,0],"split_type":[0,0,0],"sum_hessian":[3.4988167E0,1.896922E0,1.6018949E0],"tree_param":{"num_deleted":"0","num_feature":"27","num_nodes":"3","size_leaf_vector":"1"}},{"base_weights":[1.3816893E-2,-1.7065393E-2,2.078299E-2],"categories":[],"categories_nodes":[],"categories_segments":[],"categories_sizes":[],"default_left":[0,0,0],"id":77,"left_children":[1,-1,-1],"loss_changes":[4.1182983E-1,0E0,0E0],"parents":[2147483647,0,0],"right_children":[2,-1,-1],"split_conditions":[8E1,-1.7065393E-2,2.078299E-2],"split_indices":[0,0,0],"split_type":[0,0,0],"sum_hessian":[3.65479E0,1.9861622E0,1.6686277E0],"tree_param":{"num_deleted":"0","num_feature":"27","num_nodes":"3","size_leaf_vector":"1"}},{"base_weights":[-1.5106596E-1,1.2154724E-2,-2.7956557E-2],"categories":[],"categories_nodes":[],"categories_segments":[],"categories_sizes":[],"default_left":[0,0,0],"id":78,"left_children":[1,-1,-1],"loss_changes":[4.0795237E-1,0E0,0E0],"parents":[2147483647,0,0],"right_children":[2,-1,-1],"split_conditions":[5.8E1,1.2154724E-2,-2.7956557E-2],"split_indices":[2,0,0],"split_type":[0,0,0],"sum_hessian":[3.19956E0,1.5168245E0,1.6827356E0],"tree_param":{"num_deleted":"0","num_feature":"27","num_nodes":"3","size_leaf_vector":"1"}},{"base_weights":[-6.6858366E-2,-2.5328593E-2,1.991428E-2],"categories":[],"categories_nodes":[],"categories_segments":[],"categories_sizes":[],"default_left":[0,0,0],"id":79,"left_children":[1,-1,-1],"loss_changes":[5.716132E-1,0E0,0E0],"parents":[2147483647,0,0],"right_children":[2,-1,-1],"split_conditions":[8E1,-2.5328593E-2,1.991428E-2],"split_indices":[0,0,0],"split_type":[0,0,0],"sum_hessian":[3.5221283E0,1.8984268E0,1.6237015E0],"tree_param":{"num_deleted":"0","num_feature":"27","num_nodes":"3","size_leaf_vector":"1"}},{"base_weights":[-4.4204034E-2,-2.0399362E-2,1.811127E-2],"categories":[],"categories_nodes":[],"categories_segments":[],"categories_sizes":[],"default_left":[0,0,0],"id":80,"left_children":[1,-1,-1],"loss_changes":[4.106286E-1,0E0,0E0],"parents":[2147483647,0,0],"right_children":[2,-1,-1],"split_conditions":[8E1,-2.0399362E-2,1.811127E-2],"split_indices":[0,0,0],"split_type":[0,0,0],"sum_hessian":[3.4762511E0,1.9351025E0,1.5411487E0],"tree_param":{"num_deleted":"0","num_feature":"27","num_nodes":"3","size_leaf_vector":"1"}},{"base_weights":[1.7296545E-1,-1.838378E-2,3.498725E-2],"categories":[],"categories_nodes":[],"categories_segments":[],"categories_sizes":[],"default_left":[0,0,0],"id":81,"left_children":[1,-1,-1],"loss_changes":[7.612301E-1,0E0,0E0],"parents":[2147483647,0,0],"right_children":[2,-1,-1],"split_conditions":[1E1,-1.838378E-2,3.498725E-2],"split_indices":[12,0,0],"split_type":[0,0,0],"sum_hessian":[3.424724E0,1.5523858E0,1.8723383E0],"tree_param":{"num_deleted":"0","num_feature":"27","num_nodes":"3","size_leaf_vector":"1"}},{"base_weights":[5.8710855E-2,-1.9330159E-2,2.4158275E-1,4.3740954E-2,-1.743609E-2],"categories":[],"categories_nodes":[],"categories_segments":[],"categories_sizes":[],"default_left":[0,0,0,0,0],"id":82,"left_children":[1,-1,3,-1,-1],"loss_changes":[3.4405515E-1,0E0,8.0687237E-1,0E0,0E0],"parents":[2147483647,0,0,2,2],"right_children":[2,-1,4,-1,-1],"split_conditions":[7E0,-1.9330159E-2,1.8E1,4.3740954E-2,-1.743609E-2],"split_indices":[12,0,14,0,0],"split_type":[0,0,0,0,0],"sum_hessian":[3.5291069E0,1.0663927E0,2.4627142E0,1.2290964E0,1.2336178E0],"tree_param":{"num_deleted":"0","num_feature":"27","num_nodes":"5","size_leaf_vector":"1"}},{"base_weights":[5.8697157E-2,-1.4802888E-2,2.2591913E-2],"categories":[],"categories_nodes":[],"categories_segments":[],"categories_sizes":[],"default_left":[0,0,0],"id":83,"left_children":[1,-1,-1],"loss_changes":[3.6569297E-1,0E0,0E0],"parents":[2147483647,0,0],"right_children":[2,-1,-1],"split_conditions":[1E1,-1.4802888E-2,2.2591913E-2],"split_indices":[12,0,0],"split_type":[0,0,0],"sum_hessian":[3.169598E0,1.6650513E0,1.5045468E0],"tree_param":{"num_deleted":"0","num_feature":"27","num_nodes":"3","size_leaf_vector":"1"}},{"base_weights":[2.2760568E-4,-1.7105466E-2,1.4641324E-2],"categories":[],"categories_nodes":[],"categories_segments":[],"categories_sizes":[],"default_left":[0,0,0],"id":84,"left_children":[1,-1,-1],"loss_changes":[2.8753418E-1,0E0,0E0],"parents":[2147483647,0,0],"right_children":[2,-1,-1],"split_conditions":[1E1,-1.7105466E-2,1.4641324E-2],"split_indices":[12,0,0],"split_type":[0,0,0],"sum_hessian":[3.6263483E0,1.5924977E0,2.0338504E0],"tree_param":{"num_deleted":"0","num_feature":"27","num_nodes":"3","size_leaf_vector":"1"}},{"base_weights":[-1.1941256E-2,1.803404E-2,-1.7078679E-2],"categories":[],"categories_nodes":[],"categories_segments":[],"categories_sizes":[],"default_left":[0,0,0],"id":85,"left_children":[1,-1,-1],"loss_changes":[3.3821282E-1,0E0,0E0],"parents":[2147483647,0,0],"right_children":[2,-1,-1],"split_conditions":[5.8E1,1.803404E-2,-1.7078679E-2],"split_indices":[2,0,0],"split_type":[0,0,0],"sum_hessian":[3.4021015E0,1.5227637E0,1.8793379E0],"tree_param":{"num_deleted":"0","num_feature":"27","num_nodes":"3","size_leaf_vector":"1"}},{"base_weights":[2.1122089E-2,-2.28678E-2,2.2287403E-1,4.2657964E-2,-1.8228648E-2],"categories":[],"categories_nodes":[],"categories_segments":[],"categories_sizes":[],"default_left":[0,0,0,0,0],"id":86,"left_children":[1,-1,3,-1,-1],"loss_changes":[3.900825E-1,0E0,8.0428046E-1,0E0,0E0],"parents":[2147483647,0,0,2,2],"right_children":[2,-1,4,-1,-1],"split_conditions":[7E0,-2.28678E-2,1.8E1,4.2657964E-2,-1.8228648E-2],"split_indices":[12,0,14,0,0],"split_type":[0,0,0,0,0],"sum_hessian":[3.5214753E0,1.0654649E0,2.4560103E0,1.2196159E0,1.2363945E0],"tree_param":{"num_deleted":"0","num_feature":"27","num_nodes":"5","size_leaf_vector":"1"}},{"base_weights":[-8.511523E-2,-2.3635456E-2,1.70107E-2],"categories":[],"categories_nodes":[],"categories_segments":[],"categories_sizes":[],"default_left":[0,0,0],"id":87,"left_children":[1,-1,-1],"loss_changes":[4.4306642E-1,0E0,0E0],"parents":[2147483647,0,0],"right_children":[2,-1,-1],"split_conditions":[8E1,-2.3635456E-2,1.70107E-2],"split_indices":[0,0,0],"split_type":[0,0,0],"sum_hessian":[3.3567696E0,1.880477E0,1.4762925E0],"tree_param":{"num_deleted":"0","num_feature":"27","num_nodes":"3","size_leaf_vector":"1"}},{"base_weights":[5.0068513E-2,1.9181296E-2,-1.8938432E-2],"categories":[],"categories_nodes":[],"categories_segments":[],"categories_sizes":[],"default_left":[0,0,0],"id":88,"left_children":[1,-1,-1],"loss_changes":[3.452104E-1,0E0,0E0],"parents":[2147483647,0,0],"right_children":[2,-1,-1],"split_conditions":[6.3E1,1.9181296E-2,-1.8938432E-2],"split_indices":[2,0,0],"split_type":[0,0,0],"sum_hessian":[2.7752964E0,1.7195438E0,1.0557528E0],"tree_param":{"num_deleted":"0","num_feature":"27","num_nodes":"3","size_leaf_vector":"1"}},{"base_weights":[2.0274777E-2,2.0063029E-1,-1.8675897E-2,-1.6712228E-2,3.6636777E-2],"categories":[],"categories_nodes":[],"categories_segments":[],"categories_sizes":[],"default_left":[0,0,0,0,0],"id":89,"left_children":[1,3,-1,-1,-1],"loss_changes":[2.932413E-1,6.0912806E-1,0E0,0E0,0E0],"parents":[2147483647,0,0,1,1],"right_children":[2,4,-1,-1,-1],"split_conditions":[1.8E1,7E0,-1.8675897E-2,-1.6712228E-2,3.6636777E-2],"split_indices":[14,12,0,0,0],"split_type":[0,0,0,0,0],"sum_hessian":[3.6298838E0,2.4142408E0,1.2156429E0,1.1326274E0,1.2816135E0],"tree_param":{"num_deleted":"0","num_feature":"27","num_nodes":"5","size_leaf_vector":"1"}},{"base_weights":[-4.6702534E-2,-2.1040795E-2,1.7523946E-2],"categories":[],"categories_nodes":[],"categories_segments":[],"categories_sizes":[],"default_left":[0,0,0],"id":90,"left_children":[1,-1,-1],"loss_changes":[3.945886E-1,0E0,0E0],"parents":[2147483647,0,0],"right_children":[2,-1,-1],"split_conditions":[8E1,-2.1040795E-2,1.7523946E-2],"split_indices":[0,0,0],"split_type":[0,0,0],"sum_hessian":[3.2345064E0,1.737541E0,1.4969654E0],"tree_param":{"num_deleted":"0","num_feature":"27","num_nodes":"3","size_leaf_vector":"1"}},{"base_weights":[1.2739125E-1,-1.5009969E-2,2.9407082E-2],"categories":[],"categories_nodes":[],"categories_segments":[],"categories_sizes":[],"default_left":[0,0,0],"id":91,"left_children":[1,-1,-1],"loss_changes":[5.073764E-1,0E0,0E0],"parents":[2147483647,0,0],"right_children":[2,-1,-1],"split_conditions":[1E1,-1.5009969E-2,2.9407082E-2],"split_indices":[12,0,0],"split_type":[0,0,0],"sum_hessian":[3.1706996E0,1.5860213E0,1.5846783E0],"tree_param":{"num_deleted":"0","num_feature":"27","num_nodes":"3","size_leaf_vector":"1"}},{"base_weights":[1.4983303E-2,1.643557E-2,-1.2211998E-2],"categories":[],"categories_nodes":[],"categories_segments":[],"categories_sizes":[],"default_left":[0,0,0],"id":92,"left_children":[1,-1,-1],"loss_changes":[2.2897093E-1,0E0,0E0],"parents":[2147483647,0,0],"right_children":[2,-1,-1],"split_conditions":[5.8E1,1.643557E-2,-1.2211998E-2],"split_indices":[9,0,0],"split_type":[0,0,0],"sum_hessian":[3.5150087E0,1.516261E0,1.9987477E0],"tree_param":{"num_deleted":"0","num_feature":"27","num_nodes":"3","size_leaf_vector":"1"}},{"base_weights":[1.7135838E-1,-1.701607E-2,3.9578807E-1,-5.752849E-3,4.6991188E-2],"categories":[],"categories_nodes":[],"categories_segments":[],"categories_sizes":[],"default_left":[0,0,0,0,0],"id":93,"left_children":[1,-1,3,-1,-1],"loss_changes":[4.82032E-1,0E0,4.5962992E-1,0E0,0E0],"parents":[2147483647,0,0,2,2],"right_children":[2,-1,4,-1,-1],"split_conditions":[7E0,-1.701607E-2,5.9E1,-5.752849E-3,4.6991188E-2],"split_indices":[12,0,2,0,0],"split_type":[0,0,0,0,0],"sum_hessian":[3.1479998E0,1.0766548E0,2.071345E0,1.0139759E0,1.0573691E0],"tree_param":{"num_deleted":"0","num_feature":"27","num_nodes":"5","size_leaf_vector":"1"}},{"base_weights":[1.9125178E-1,-1.8053257E-1,4.2156033E-2,7.407869E-3,-2.620106E-2],"categories":[],"categories_nodes":[],"categories_segments":[],"categories_sizes":[],"default_left":[0,0,0,0,0],"id":94,"left_children":[1,3,-1,-1,-1],"loss_changes":[7.756406E-1,2.0945978E-1,0E0,0E0,0E0],"parents":[2147483647,0,0,1,1],"right_children":[2,4,-1,-1,-1],"split_conditions":[8E1,1.8E1,4.2156033E-2,7.407869E-3,-2.620106E-2],"split_indices":[0,14,0,0,0],"split_type":[0,0,0,0,0],"sum_hessian":[3.3647957E0,2.0610352E0,1.3037605E0,1.0149487E0,1.0460863E0],"tree_param":{"num_deleted":"0","num_feature":"27","num_nodes":"5","size_leaf_vector":"1"}},{"base_weights":[-1.0380709E-1,-2.172342E-2,1.1088635E-2],"categories":[],"categories_nodes":[],"categories_segments":[],"categories_sizes":[],"default_left":[0,0,0],"id":95,"left_children":[1,-1,-1],"loss_changes":[2.4837004E-1,0E0,0E0],"parents":[2147483647,0,0],"right_children":[2,-1,-1],"split_conditions":[8E1,-2.172342E-2,1.1088635E-2],"split_indices":[0,0,0],"split_type":[0,0,0],"sum_hessian":[2.6785302E0,1.3957216E0,1.2828088E0],"tree_param":{"num_deleted":"0","num_feature":"27","num_nodes":"3","size_leaf_vector":"1"}},{"base_weights":[-8.202239E-3,-1.854548E-2,1.4334716E-2],"categories":[],"categories_nodes":[],"categories_segments":[],"categories_sizes":[],"default_left":[0,0,0],"id":96,"left_children":[1,-1,-1],"loss_changes":[2.9746535E-1,0E0,0E0],"parents":[2147483647,0,0],"right_children":[2,-1,-1],"split_conditions":[1E1,-1.854548E-2,1.4334716E-2],"split_indices":[12,0,0],"split_type":[0,0,0],"sum_hessian":[3.4479022E0,1.4527811E0,1.9951211E0],"tree_param":{"num_deleted":"0","num_feature":"27","num_nodes":"3","size_leaf_vector":"1"}},{"base_weights":[-2.8366772E-2,1.7572913E-1,-2.2991179E-2,-1.7730368E-2,3.5395216E-2],"categories":[],"categories_nodes":[],"categories_segments":[],"categories_sizes":[],"default_left":[0,0,0,0,0],"id":97,"left_children":[1,3,-1,-1,-1],"loss_changes":[3.2319844E-1,5.854571E-1,0E0,0E0,0E0],"parents":[2147483647,0,0,1,1],"right_children":[2,4,-1,-1,-1],"split_conditions":[1.8E1,7E0,-2.2991179E-2,-1.7730368E-2,3.5395216E-2],"split_indices":[14,12,0,0,0],"split_type":[0,0,0,0,0],"sum_hessian":[3.3347507E0,2.2314434E0,1.1033074E0,1.0709935E0,1.1604499E0],"tree_param":{"num_deleted":"0","num_feature":"27","num_nodes":"5","size_leaf_vector":"1"}},{"base_weights":[1.1736533E-2,-1.4602093E-2,1.3440275E-2],"categories":[],"categories_nodes":[],"categories_segments":[],"categories_sizes":[],"default_left":[0,0,0],"id":98,"left_children":[1,-1,-1],"loss_changes":[2.1638246E-1,0E0,0E0],"parents":[2147483647,0,0],"right_children":[2,-1,-1],"split_conditions":[1E1,-1.4602093E-2,1.3440275E-2],"split_indices":[12,0,0],"split_type":[0,0,0],"sum_hessian":[3.4393601E0,1.4769415E0,1.9624186E0],"tree_param":{"num_deleted":"0","num_feature":"27","num_nodes":"3","size_leaf_vector":"1"}},{"base_weights":[-8.006674E-2,1.6062263E-2,-2.2669984E-2],"categories":[],"categories_nodes":[],"categories_segments":[],"categories_sizes":[],"default_left":[0,0,0],"id":99,"left_children":[1,-1,-1],"loss_changes":[3.9077315E-1,0E0,0E0],"parents":[2147483647,0,0],"right_children":[2,-1,-1],"split_conditions":[5.8E1,1.6062263E-2,-2.2669984E-2],"split_indices":[2,0,0],"split_type":[0,0,0],"sum_hessian":[3.1937644E0,1.43306E0,1.7607044E0],"tree_param":{"num_deleted":"0","num_feature":"27","num_nodes":"3","size_leaf_vector":"1"}},{"base_weights":[-6.7863986E-2,1.6559926E-1,-2.7967375E-2,-1.450097E-2,3.2179434E-2],"categories":[],"categories_nodes":[],"categories_segments":[],"categories_sizes":[],"default_left":[0,0,0,0,0],"id":100,"left_children":[1,3,-1,-1,-1],"loss_changes":[3.913643E-1,4.4295427E-1,0E0,0E0,0E0],"parents":[2147483647,0,0,1,1],"right_children":[2,4,-1,-1,-1],"split_conditions":[1.8E1,7E0,-2.7967375E-2,-1.450097E-2,3.2179434E-2],"split_indices":[14,12,0,0,0],"split_type":[0,0,0,0,0],"sum_hessian":[3.199797E0,2.171784E0,1.028013E0,1.0882101E0,1.0835738E0],"tree_param":{"num_deleted":"0","num_feature":"27","num_nodes":"5","size_leaf_vector":"1"}},{"base_weights":[-4.8283763E-2,1.5176801E-1,-2.374321E-2,-1.6037105E-2,3.1658493E-2],"categories":[],"categories_nodes":[],"categories_segments":[],"categories_sizes":[],"default_left":[0,0,0,0,0],"id":101,"left_children":[1,3,-1,-1,-1],"loss_changes":[3.000564E-1,4.7234756E-1,0E0,0E0,0E0],"parents":[2147483647,0,0,1,1],"right_children":[2,4,-1,-1,-1],"split_conditions":[1.8E1,7E0,-2.374321E-2,-1.6037105E-2,3.1658493E-2],"split_indices":[14,12,0,0,0],"split_type":[0,0,0,0,0],"sum_hessian":[3.2713957E0,2.221789E0,1.0496069E0,1.0846359E0,1.137153E0],"tree_param":{"num_deleted":"0","num_feature":"27","num_nodes":"5","size_leaf_vector":"1"}},{"base_weights":[-7.6632043E-3,-1.621314E-2,1.267184E-2],"categories":[],"categories_nodes":[],"categories_segments":[],"categories_sizes":[],"default_left":[0,0,0],"id":102,"left_children":[1,-1,-1],"loss_changes":[2.242883E-1,0E0,0E0],"parents":[2147483647,0,0],"right_children":[2,-1,-1],"split_conditions":[1E1,-1.621314E-2,1.267184E-2],"split_indices":[12,0,0],"split_type":[0,0,0],"sum_hessian":[3.3154292E0,1.4120209E0,1.9034084E0],"tree_param":{"num_deleted":"0","num_feature":"27","num_nodes":"3","size_leaf_vector":"1"}},{"base_weights":[-4.6699527E-3,-1.4656576E-2,1.2180514E-2],"categories":[],"categories_nodes":[],"categories_segments":[],"categories_sizes":[],"default_left":[0,0,0],"id":103,"left_children":[1,-1,-1],"loss_changes":[1.938036E-1,0E0,0E0],"parents":[2147483647,0,0],"right_children":[2,-1,-1],"split_conditions":[1E1,-1.4656576E-2,1.2180514E-2],"split_indices":[12,0,0],"split_type":[0,0,0],"sum_hessian":[3.3024337E0,1.4590155E0,1.8434184E0],"tree_param":{"num_deleted":"0","num_feature":"27","num_nodes":"3","size_leaf_vector":"1"}},{"base_weights":[-9.4938904E-2,-2.7862824E-2,1.040112E-2],"categories":[],"categories_nodes":[],"categories_segments":[],"categories_sizes":[],"default_left":[0,0,0],"id":104,"left_children":[1,-1,-1],"loss_changes":[3.68203E-1,0E0,0E0],"parents":[2147483647,0,0],"right_children":[2,-1,-1],"split_conditions":[7.9E1,-2.7862824E-2,1.040112E-2],"split_indices":[0,0,0],"split_type":[0,0,0],"sum_hessian":[3.1870465E0,1.1371828E0,2.0498638E0],"tree_param":{"num_deleted":"0","num_feature":"27","num_nodes":"3","size_leaf_vector":"1"}},{"base_weights":[4.972867E-3,1.6267516E-1,-1.5552973E-2,-1.39576E-2,3.0956833E-2],"categories":[],"categories_nodes":[],"categories_segments":[],"categories_sizes":[],"default_left":[0,0,0,0,0],"id":105,"left_children":[1,3,-1,-1,-1],"loss_changes":[1.9325379E-1,4.0863866E-1,0E0,0E0,0E0],"parents":[2147483647,0,0,1,1],"right_children":[2,4,-1,-1,-1],"split_conditions":[1.8E1,7E0,-1.5552973E-2,-1.39576E-2,3.0956833E-2],"split_indices":[14,12,0,0,0],"split_type":[0,0,0,0,0],"sum_hessian":[3.3856778E0,2.1658952E0,1.2197827E0,1.0686456E0,1.0972496E0],"tree_param":{"num_deleted":"0","num_feature":"27","num_nodes":"5","size_leaf_vector":"1"}},{"base_weights":[-2.0879997E-2,1.6195178E-2,-1.5553451E-2],"categories":[],"categories_nodes":[],"categories_segments":[],"categories_sizes":[],"default_left":[0,0,0],"id":106,"left_children":[1,-1,-1],"loss_changes":[2.6828822E-1,0E0,0E0],"parents":[2147483647,0,0],"right_children":[2,-1,-1],"split_conditions":[5.8E1,1.6195178E-2,-1.5553451E-2],"split_indices":[2,0,0],"split_type":[0,0,0],"sum_hessian":[3.2711024E0,1.3856523E0,1.88545E0],"tree_param":{"num_deleted":"0","num_feature":"27","num_nodes":"3","size_leaf_vector":"1"}},{"base_weights":[1.6061404E-1,-1.4748571E-2,3.0923255E-2],"categories":[],"categories_nodes":[],"categories_segments":[],"categories_sizes":[],"default_left":[0,0,0],"id":107,"left_children":[1,-1,-1],"loss_changes":[5.2964354E-1,0E0,0E0],"parents":[2147483647,0,0],"right_children":[2,-1,-1],"split_conditions":[1E1,-1.4748571E-2,3.0923255E-2],"split_indices":[12,0,0],"split_type":[0,0,0],"sum_hessian":[3.181999E0,1.4791242E0,1.7028748E0],"tree_param":{"num_deleted":"0","num_feature":"27","num_nodes":"3","size_leaf_vector":"1"}},{"base_weights":[9.158964E-3,1.7331907E-1,-1.5992308E-2,-6.7529166E-3,2.4975428E-2],"categories":[],"categories_nodes":[],"categories_segments":[],"categories_sizes":[],"default_left":[0,0,0,0,0],"id":108,"left_children":[1,3,-1,-1,-1],"loss_changes":[2.0990948E-1,1.9038254E-1,0E0,0E0,0E0],"parents":[2147483647,0,0,1,1],"right_children":[2,4,-1,-1,-1],"split_conditions":[1.8E1,1E1,-1.5992308E-2,-6.7529166E-3,2.4975428E-2],"split_indices":[14,14,0,0,0],"split_type":[0,0,0,0,0],"sum_hessian":[3.366119E0,2.1508265E0,1.2152925E0,1.0625653E0,1.088261E0],"tree_param":{"num_deleted":"0","num_feature":"27","num_nodes":"5","size_leaf_vector":"1"}},{"base_weights":[1.5574856E-1,-1.2758712E-2,2.9217951E-2],"categories":[],"categories_nodes":[],"categories_segments":[],"categories_sizes":[],"default_left":[0,0,0],"id":109,"left_children":[1,-1,-1],"loss_changes":[4.424993E-1,0E0,0E0],"parents":[2147483647,0,0],"right_children":[2,-1,-1],"split_conditions":[1E1,-1.2758712E-2,2.9217951E-2],"split_indices":[12,0,0],"split_type":[0,0,0],"sum_hessian":[3.1430614E0,1.5037817E0,1.6392797E0],"tree_param":{"num_deleted":"0","num_feature":"27","num_nodes":"3","size_leaf_vector":"1"}},{"base_weights":[1.6573445E-1,-1.4071093E-2,2.8310183E-2],"categories":[],"categories_nodes":[],"categories_segments":[],"categories_sizes":[],"default_left":[0,0,0],"id":110,"left_children":[1,-1,-1],"loss_changes":[4.5092642E-1,0E0,0E0],"parents":[2147483647,0,0],"right_children":[2,-1,-1],"split_conditions":[7.9E1,-1.4071093E-2,2.8310183E-2],"split_indices":[1,0,0],"split_type":[0,0,0],"sum_hessian":[3.2223086E0,1.3326285E0,1.88968E0],"tree_param":{"num_deleted":"0","num_feature":"27","num_nodes":"3","size_leaf_vector":"1"}},{"base_weights":[-5.2436937E-2,1.8370795E-1,-2.7614389E-2,-1.0722976E-2,3.0135091E-2],"categories":[],"categories_nodes":[],"categories_segments":[],"categories_sizes":[],"default_left":[0,0,0,0,0],"id":111,"left_children":[1,3,-1,-1,-1],"loss_changes":[4.091493E-1,3.276875E-1,0E0,0E0,0E0],"parents":[2147483647,0,0,1,1],"right_children":[2,4,-1,-1,-1],"split_conditions":[1.8E1,7E0,-2.7614389E-2,-1.0722976E-2,3.0135091E-2],"split_indices":[14,12,0,0,0],"split_type":[0,0,0,0,0],"sum_hessian":[3.1681297E0,2.148081E0,1.0200486E0,1.0686215E0,1.0794597E0],"tree_param":{"num_deleted":"0","num_feature":"27","num_nodes":"5","size_leaf_vector":"1"}},{"base_weights":[-1.14982225E-1,1.4084662E-2,-2.4343332E-2],"categories":[],"categories_nodes":[],"categories_segments":[],"categories_sizes":[],"default_left":[0,0,0],"id":112,"left_children":[1,-1,-1],"loss_changes":[3.649453E-1,0E0,0E0],"parents":[2147483647,0,0],"right_children":[2,-1,-1],"split_conditions":[5.8E1,1.4084662E-2,-2.4343332E-2],"split_indices":[2,0,0],"split_type":[0,0,0],"sum_hessian":[3.0076125E0,1.3328222E0,1.6747901E0],"tree_param":{"num_deleted":"0","num_feature":"27","num_nodes":"3","size_leaf_vector":"1"}},{"base_weights":[2.9416056E-2,1.3543236E-2,-1.4480631E-2],"categories":[],"categories_nodes":[],"categories_segments":[],"categories_sizes":[],"default_left":[0,0,0],"id":113,"left_children":[1,-1,-1],"loss_changes":[2.0711787E-1,0E0,0E0],"parents":[2147483647,0,0],"right_children":[2,-1,-1],"split_conditions":[1.8E1,1.3543236E-2,-1.4480631E-2],"split_indices":[14,0,0],"split_type":[0,0,0],"sum_hessian":[3.3105402E0,2.0608163E0,1.2497238E0],"tree_param":{"num_deleted":"0","num_feature":"27","num_nodes":"3","size_leaf_vector":"1"}},{"base_weights":[-6.011606E-2,-2.1914702E-2,1.1490436E-2],"categories":[],"categories_nodes":[],"categories_segments":[],"categories_sizes":[],"default_left":[0,0,0],"id":114,"left_children":[1,-1,-1],"loss_changes":[2.8929967E-1,0E0,0E0],"parents":[2147483647,0,0],"right_children":[2,-1,-1],"split_conditions":[1E1,-2.1914702E-2,1.1490436E-2],"split_indices":[12,0,0],"split_type":[0,0,0],"sum_hessian":[3.1938643E0,1.3148556E0,1.8790088E0],"tree_param":{"num_deleted":"0","num_feature":"27","num_nodes":"3","size_leaf_vector":"1"}},{"base_weights":[2.112023E-2,1.8775543E-2,-1.2356054E-2],"categories":[],"categories_nodes":[],"categories_segments":[],"categories_sizes":[],"default_left":[0,0,0],"id":115,"left_children":[1,-1,-1],"loss_changes":[2.5581193E-1,0E0,0E0],"parents":[2147483647,0,0],"right_children":[2,-1,-1],"split_conditions":[5.8E1,1.8775543E-2,-1.2356054E-2],"split_indices":[2,0,0],"split_type":[0,0,0],"sum_hessian":[3.2687066E0,1.2938544E0,1.9748522E0],"tree_param":{"num_deleted":"0","num_feature":"27","num_nodes":"3","size_leaf_vector":"1"}},{"base_weights":[9.4517805E-2,-1.6355505E-2,2.5281822E-2],"categories":[],"categories_nodes":[],"categories_segments":[],"categories_sizes":[],"default_left":[0,0,0],"id":116,"left_children":[1,-1,-1],"loss_changes":[4.3960163E-1,0E0,0E0],"parents":[2147483647,0,0],"right_children":[2,-1,-1],"split_conditions":[1E1,-1.6355505E-2,2.5281822E-2],"split_indices":[12,0,0],"split_type":[0,0,0],"sum_hessian":[3.0593014E0,1.4269334E0,1.632368E0],"tree_param":{"num_deleted":"0","num_feature":"27","num_nodes":"3","size_leaf_vector":"1"}},{"base_weights":[1.270431E-1,-1.0978599E-2,2.4726281E-2],"categories":[],"categories_nodes":[],"categories_segments":[],"categories_sizes":[],"default_left":[0,0,0],"id":117,"left_children":[1,-1,-1],"loss_changes":[3.1551504E-1,0E0,0E0],"parents":[2147483647,0,0],"right_children":[2,-1,-1],"split_conditions":[1E1,-1.0978599E-2,2.4726281E-2],"split_indices":[12,0,0],"split_type":[0,0,0],"sum_hessian":[3.0509598E0,1.4889091E0,1.5620507E0],"tree_param":{"num_deleted":"0","num_feature":"27","num_nodes":"3","size_leaf_vector":"1"}},{"base_weights":[-8.861227E-2,1.3940687E-2,-2.1050306E-2],"categories":[],"categories_nodes":[],"categories_segments":[],"categories_sizes":[],"default_left":[0,0,0],"id":118,"left_children":[1,-1,-1],"loss_changes":[3.0918682E-1,0E0,0E0],"parents":[2147483647,0,0],"right_children":[2,-1,-1],"split_conditions":[5.8E1,1.3940687E-2,-2.1050306E-2],"split_indices":[2,0,0],"split_type":[0,0,0],"sum_hessian":[3.0843875E0,1.3346875E0,1.7497001E0],"tree_param":{"num_deleted":"0","num_feature":"27","num_nodes":"3","size_leaf_vector":"1"}},{"base_weights":[1.5075628E-1,-1.2857283E-2,2.8822178E-2],"categories":[],"categories_nodes":[],"categories_segments":[],"categories_sizes":[],"default_left":[0,0,0],"id":119,"left_children":[1,-1,-1],"loss_changes":[4.329455E-1,0E0,0E0],"parents":[2147483647,0,0],"right_children":[2,-1,-1],"split_conditions":[1E1,-1.2857283E-2,2.8822178E-2],"split_indices":[12,0,0],"split_type":[0,0,0],"sum_hessian":[3.0937846E0,1.4859366E0,1.6078479E0],"tree_param":{"num_deleted":"0","num_feature":"27","num_nodes":"3","size_leaf_vector":"1"}}]},"name":"gbtree"},"learner_model_param":{"base_score":"[4.7244096E-1]","boost_from_average":"1","num_class":"0","num_feature":"27","num_target":"1"},"objective":{"name":"binary:logistic","reg_loss_param":{"scale_pos_weight":"1"}}},"version":[3,2,0]}